{"learner":{"attributes":{"scikit_learn":"{\"_estimator_type\": \"regressor\"}"},"feature_names":[],"feature_types":[],"gradient_booster":{"model":{"cats":{"enc":[],"feature_segments":[],"sorted_idx":[]},"gbtree_model_param":{"num_parallel_tree":"1","num_trees":"500"},"iteration_indptr":[0,1,2,3,4,5,6,7,8,9,10,11,12,13,14,15,16,17,18,19,20,21,22,23,24,25,26,27,28,29,30,31,32,33,34,35,36,37,38,39,40,41,42,43,44,45,46,47,48,49,50,51,52,53,54,55,56,57,58,59,60,61,62,63,64,65,66,67,68,69,70,71,72,73,74,75,76,77,78,79,80,81,82,83,84,85,86,87,88,89,90,91,92,93,94,95,96,97,98,99,100,101,102,103,104,105,106,107,108,109,110,111,112,113,114,115,116,117,118,119,120,121,122,123,124,125,126,127,128,129,130,131,132,133,134,135,136,137,138,139,140,141,142,143,144,145,146,147,148,149,150,151,152,153,154,155,156,157,158,159,160,161,162,163,164,165,166,167,168,169,170,171,172,173,174,175,176,177,178,179,180,181,182,183,184,185,186,187,188,189,190,191,192,193,194,195,196,197,198,199,200,201,202,203,204,205,206,207,208,209,210,211,212,213,214,215,216,217,218,219,220,221,222,223,224,225,226,227,228,229,230,231,232,233,234,235,236,237,238,239,240,241,242,243,244,245,246,247,248,249,250,251,252,253,254,255,256,257,258,259,260,261,262,263,264,265,266,267,268,269,270,271,272,273,274,275,276,277,278,279,280,281,282,283,284,285,286,287,288,289,290,291,292,293,294,295,296,297,298,299,300,301,302,303,304,305,306,307,308,309,310,311,312,313,314,315,316,317,318,319,320,321,322,323,324,325,326,327,328,329,330,331,332,333,334,335,336,337,338,339,340,341,342,343,344,345,346,347,348,349,350,351,352,353,354,355,356,357,358,359,360,361,362,363,364,365,366,367,368,369,370,371,372,373,374,375,376,377,378,379,380,381,382,383,384,385,386,387,388,389,390,391,392,393,394,395,396,397,398,399,400,401,402,403,404,405,406,407,408,409,410,411,412,413,414,415,416,417,418,419,420,421,422,423,424,425,426,427,428,429,430,431,432,433,434,435,436,437,438,439,440,441,442,443,444,445,446,447,448,449,450,451,452,453,454,455,456,457,458,459,460,461,462,463,464,465,466,467,468,469,470,471,472,473,474,475,476,477,478,479,480,481,482,483,484,485,486,487,488,489,490,491,492,493,494,495,496,497,498,499,500],"tree_info":[0,0,0,0,0,0,0,0,0,0,0,0,0,0,0,0,0,0,0,0,0,0,0,0,0,0,0,0,0,0,0,0,0,0,0,0,0,0,0,0,0,0,0,0,0,0,0,0,0,0,0,0,0,0,0,0,0,0,0,0,0,0,0,0,0,0,0,0,0,0,0,0,0,0,0,0,0,0,0,0,0,0,0,0,0,0,0,0,0,0,0,0,0,0,0,0,0,0,0,0,0,0,0,0,0,0,0,0,0,0,0,0,0,0,0,0,0,0,0,0,0,0,0,0,0,0,0,0,0,0,0,0,0,0,0,0,0,0,0,0,0,0,0,0,0,0,0,0,0,0,0,0,0,0,0,0,0,0,0,0,0,0,0,0,0,0,0,0,0,0,0,0,0,0,0,0,0,0,0,0,0,0,0,0,0,0,0,0,0,0,0,0,0,0,0,0,0,0,0,0,0,0,0,0,0,0,0,0,0,0,0,0,0,0,0,0,0,0,0,0,0,0,0,0,0,0,0,0,0,0,0,0,0,0,0,0,0,0,0,0,0,0,0,0,0,0,0,0,0,0,0,0,0,0,0,0,0,0,0,0,0,0,0,0,0,0,0,0,0,0,0,0,0,0,0,0,0,0,0,0,0,0,0,0,0,0,0,0,0,0,0,0,0,0,0,0,0,0,0,0,0,0,0,0,0,0,0,0,0,0,0,0,0,0,0,0,0,0,0,0,0,0,0,0,0,0,0,0,0,0,0,0,0,0,0,0,0,0,0,0,0,0,0,0,0,0,0,0,0,0,0,0,0,0,0,0,0,0,0,0,0,0,0,0,0,0,0,0,0,0,0,0,0,0,0,0,0,0,0,0,0,0,0,0,0,0,0,0,0,0,0,0,0,0,0,0,0,0,0,0,0,0,0,0,0,0,0,0,0,0,0,0,0,0,0,0,0,0,0,0,0,0,0,0,0,0,0,0,0,0,0,0,0,0,0,0,0,0,0,0,0,0,0,0,0,0,0,0,0,0,0,0,0,0,0,0,0,0,0,0,0,0,0,0,0,0,0,0,0,0,0,0,0,0,0,0,0,0,0,0,0,0,0,0,0,0,0,0,0,0,0,0,0,0,0,0,0,0,0,0],"trees":[{"base_weights":[6.61571E-3,-2.4076284E-1,6.841066E-1,7.315872E-2,-3.5610056E-1,5.498409E-1,9.834999E-1,1.1880058E-1,-8.1038065E-2,-4.2973295E-1,-8.12705E-2,4.048294E-1,6.599473E-1,8.8942415E-1,1.2177649E0,1.2874636E-1,3.9239373E-2,-1.753497E-2,-6.851524E-2,-3.1560075E-1,-4.88001E-1,-1.6421485E-1,5.024956E-2,3.6921346E-1,4.772773E-1,6.799155E-1,1.191676E-2,1.2049925E-1,8.378028E-1,1.1406058E-1,1.3547502E-1,1.5434246E-1,1.1243889E-1,-2.8228776E-3,7.723204E-2,-4.330147E-2,-1.19327776E-1,-1.7532767E-1,-3.4589338E-1,-5.108001E-1,-3.1522635E-1,-7.135322E-2,-2.3496418E-1,5.2384358E-2,1.1804466E-2,3.9860493E-1,-8.309733E-3,5.1768816E-1,2.1829346E-2,6.655635E-1,1.0944188E-1,6.1955017E-1,9.065888E-1,1.22624785E-2,1.929467E-2,1.0712443E-2,2.5735924E-2,3.8816368E-3,9.182199E-3,-5.7532764E-3,2.075834E-3,-1.4987707E-2,-6.500152E-3,-1.532522E-2,-2.0208495E-2,-3.3023402E-2,-3.7037008E-2,-4.5021925E-2,-5.195686E-2,-2.2149062E-2,-3.9372966E-2,-1.8933885E-2,5.4922486E-3,-4.4196606E-2,-1.4424197E-2,-2.3243262E-2,3.423715E-3,3.3377655E-2,4.6972614E-2,4.6231817E-2,6.019449E-2,5.933385E-2,7.038777E-2,7.8403965E-2,5.500696E-2,1.06114164E-1,7.6045275E-2],"categories":[],"categories_nodes":[],"categories_segments":[],"categories_sizes":[],"default_left":[0,0,0,0,0,0,0,0,0,0,0,0,0,0,0,0,0,0,0,0,0,0,0,0,0,0,0,0,0,0,0,0,0,0,0,0,0,0,0,0,0,0,0,0,0,0,0,0,0,0,0,0,0,0,0,0,0,0,0,0,0,0,0,0,0,0,0,0,0,0,0,0,0,0,0,0,0,0,0,0,0,0,0,0,0,0,0],"id":0,"left_children":[1,3,5,7,9,11,13,15,17,19,21,23,25,27,29,31,33,-1,35,37,39,41,43,45,47,49,-1,-1,51,-1,-1,53,55,-1,57,59,61,63,65,67,69,71,73,-1,75,77,-1,79,-1,81,-1,83,85,-1,-1,-1,-1,-1,-1,-1,-1,-1,-1,-1,-1,-1,-1,-1,-1,-1,-1,-1,-1,-1,-1,-1,-1,-1,-1,-1,-1,-1,-1,-1,-1,-1,-1],"loss_changes":[1.0670854E3,1.6889548E2,6.791687E1,8.835064E0,6.8991455E1,1.8541595E1,1.0509186E1,7.609253E-1,3.2694674E-1,1.7735168E1,7.8844385E0,1.1423111E0,7.1322937E0,5.164398E0,1.9073486E-2,3.4161568E-1,2.815793E-1,0E0,3.2153273E-1,3.814659E0,6.8466797E0,2.8936996E0,5.0918794E0,4.6461716E0,1.613842E0,3.1027222E0,0E0,0E0,4.3775177E0,0E0,0E0,3.8285303E-1,3.798523E-1,0E0,3.5669565E-2,1.579988E-1,1.2966669E-1,6.590128E-2,1.6477203E-1,6.000366E-1,1.4580917E0,2.8858514E0,4.6499453E0,0E0,1.43247E0,1.3462944E0,0E0,3.8418198E-1,0E0,1.3118896E0,0E0,5.05888E-1,4.7943115E0,0E0,0E0,0E0,0E0,0E0,0E0,0E0,0E0,0E0,0E0,0E0,0E0,0E0,0E0,0E0,0E0,0E0,0E0,0E0,0E0,0E0,0E0,0E0,0E0,0E0,0E0,0E0,0E0,0E0,0E0,0E0,0E0,0E0,0E0],"parents":[2147483647,0,0,1,1,2,2,3,3,4,4,5,5,6,6,7,7,8,8,9,9,10,10,11,11,12,12,13,13,14,14,15,15,16,16,18,18,19,19,20,20,21,21,22,22,23,23,24,24,25,25,28,28,31,31,32,32,34,34,35,35,36,36,37,37,38,38,39,39,40,40,41,41,42,42,44,44,45,45,47,47,49,49,51,51,52,52],"right_children":[2,4,6,8,10,12,14,16,18,20,22,24,26,28,30,32,34,-1,36,38,40,42,44,46,48,50,-1,-1,52,-1,-1,54,56,-1,58,60,62,64,66,68,70,72,74,-1,76,78,-1,80,-1,82,-1,84,86,-1,-1,-1,-1,-1,-1,-1,-1,-1,-1,-1,-1,-1,-1,-1,-1,-1,-1,-1,-1,-1,-1,-1,-1,-1,-1,-1,-1,-1,-1,-1,-1,-1,-1],"split_conditions":[8.297676E-1,-1.0432099E0,1.3221483E0,-1.2363003E0,4.8220477E-1,1.0421671E0,1.5731659E0,-1.303882E0,-1.2169913E0,-4.8324758E-1,7.042588E-1,9.745854E-1,1.3124938E0,1.3414574E0,1.7372928E0,-1.6224813E0,-1.284573E0,-1.753497E-2,-1.101137E0,-9.2735565E-1,3.76005E-1,5.7875E-1,7.139133E-1,9.649309E-1,1.0325125E0,1.3028393E0,1.191676E-2,1.2049925E-1,1.3800755E0,1.1406058E-1,1.3547502E-1,-1.7479901E0,-1.3135365E0,-2.8228776E-3,-1.2652639E0,-1.1204461E0,-1.062519E0,-9.7562826E-1,-6.57029E-1,-3.5773876E-1,4.242776E-1,5.3047734E-1,6.173681E-1,5.2384358E-2,7.2356784E-1,8.9734924E-1,-8.309733E-3,1.0132035E0,2.1829346E-2,1.1290578E0,1.0944188E-1,1.3511119E0,1.4669662E0,1.22624785E-2,1.929467E-2,1.0712443E-2,2.5735924E-2,3.8816368E-3,9.182199E-3,-5.7532764E-3,2.075834E-3,-1.4987707E-2,-6.500152E-3,-1.532522E-2,-2.0208495E-2,-3.3023402E-2,-3.7037008E-2,-4.5021925E-2,-5.195686E-2,-2.2149062E-2,-3.9372966E-2,-1.8933885E-2,5.4922486E-3,-4.4196606E-2,-1.4424197E-2,-2.3243262E-2,3.423715E-3,3.3377655E-2,4.6972614E-2,4.6231817E-2,6.019449E-2,5.933385E-2,7.038777E-2,7.8403965E-2,5.500696E-2,1.06114164E-1,7.6045275E-2],"split_indices":[0,0,0,0,0,0,0,0,0,0,0,0,0,0,0,0,0,0,0,0,0,0,0,0,0,0,0,0,0,0,0,0,0,0,0,0,0,0,0,0,0,0,0,0,0,0,0,0,0,0,0,0,0,0,0,0,0,0,0,0,0,0,0,0,0,0,0,0,0,0,0,0,0,0,0,0,0,0,0,0,0,0,0,0,0,0,0],"split_type":[0,0,0,0,0,0,0,0,0,0,0,0,0,0,0,0,0,0,0,0,0,0,0,0,0,0,0,0,0,0,0,0,0,0,0,0,0,0,0,0,0,0,0,0,0,0,0,0,0,0,0,0,0,0,0,0,0,0,0,0,0,0,0,0,0,0,0,0,0,0,0,0,0,0,0,0,0,0,0,0,0,0,0,0,0,0,0],"sum_hessian":[6.365E3,4.663E3,1.702E3,1.253E3,3.41E3,1.177E3,5.25E2,9.67E2,2.86E2,2.689E3,7.21E2,5.1E2,6.67E2,3.78E2,1.47E2,8.59E2,1.08E2,3.2E1,2.54E2,9.11E2,1.778E3,4.42E2,2.79E2,3.46E2,1.64E2,6.43E2,2.4E1,5E1,3.28E2,1E2,4.7E1,3.31E2,5.28E2,3.9E1,6.9E1,1.71E2,8.3E1,1.63E2,7.48E2,1.569E3,2.09E2,1.92E2,2.5E2,2E1,2.59E2,3.25E2,2.1E1,1.41E2,2.3E1,6.24E2,1.9E1,8.1E1,2.47E2,1.84E2,1.47E2,5.11E2,1.7E1,2E1,4.9E1,1.4E2,3.1E1,5.2E1,3.1E1,9.3E1,7E1,4.65E2,2.83E2,2.05E2,1.364E3,9.7E1,1.12E2,9.9E1,9.3E1,7.5E1,1.75E2,2.1E1,2.38E2,1.73E2,1.52E2,8.9E1,5.2E1,2.22E2,4.02E2,2.1E1,6E1,1.17E2,1.3E2],"tree_param":{"num_deleted":"0","num_feature":"2","num_nodes":"87","size_leaf_vector":"1"}},{"base_weights":[-2.5813242E-3,7.4600923E-1,-9.9525385E-2,7.7473915E-1,4.6118653E-1,-1.1597897E-1,2.1413837E-1,1.0110875E-1,7.523061E-1,5.1829386E-1,3.219544E-2,-4.1553065E-2,-2.0730832E-1,1.8728395E-1,3.8305696E-2,6.34154E-1,8.290354E-1,4.038951E-2,5.8558244E-2,-6.077351E-2,3.218747E-2,-1.5472373E-1,-2.4548575E-1,1.1188694E-1,2.0931417E-1,6.892675E-1,4.9138987E-1,8.740808E-1,7.0255303E-1,4.5405403E-2,-7.41939E-2,1.722309E-1,-3.053029E-2,-4.7324732E-2,-1.4463425E-1,-2.6033902E-1,-2.2932539E-2,1.219313E-2,8.048989E-3,2.8345868E-2,1.9419834E-1,4.1973036E-2,7.232971E-2,4.282257E-2,5.4592844E-2,7.974597E-2,1.2360597E-1,4.546755E-2,7.902002E-2,-5.7816966E-3,7.907342E-3,-5.813905E-3,-1.0541019E-2,7.6110824E-3,3.0464614E-2,2.8432165E-3,-8.260484E-3,-1.0422285E-2,-1.6492695E-2,-2.563994E-2,-4.6190385E-2,-1.1009786E-2,3.295326E-3,6.10832E-3,2.1594157E-2],"categories":[],"categories_nodes":[],"categories_segments":[],"categories_sizes":[],"default_left":[0,0,0,0,0,0,0,0,0,0,0,0,0,0,0,0,0,0,0,0,0,0,0,0,0,0,0,0,0,0,0,0,0,0,0,0,0,0,0,0,0,0,0,0,0,0,0,0,0,0,0,0,0,0,0,0,0,0,0,0,0,0,0,0,0],"id":1,"left_children":[1,3,5,7,9,11,13,-1,15,17,-1,19,21,23,-1,25,27,-1,-1,29,31,33,35,37,39,41,43,45,47,49,51,53,55,-1,57,59,61,-1,-1,-1,63,-1,-1,-1,-1,-1,-1,-1,-1,-1,-1,-1,-1,-1,-1,-1,-1,-1,-1,-1,-1,-1,-1,-1,-1],"loss_changes":[4.664907E2,5.6735535E0,2.9395477E1,2.7810974E0,3.897152E-1,3.6751015E1,1.2165432E0,0E0,5.040619E0,1.3297653E-1,0E0,4.227005E0,4.836334E0,3.868494E-1,0E0,1.5968857E0,1.4882812E0,0E0,0E0,3.3734045E0,5.4244986E0,3.2224236E0,4.6384583E0,8.476853E-3,1.57897E-1,1.3015366E0,1.4249802E-2,6.4473267E0,1.8567429E0,9.2899954E-1,1.0463343E0,2.4078164E0,1.3134279E0,0E0,7.9794693E-1,9.273834E-1,4.371741E-1,0E0,0E0,0E0,4.527998E-1,0E0,0E0,0E0,0E0,0E0,0E0,0E0,0E0,0E0,0E0,0E0,0E0,0E0,0E0,0E0,0E0,0E0,0E0,0E0,0E0,0E0,0E0,0E0,0E0],"parents":[2147483647,0,0,1,1,2,2,3,3,4,4,5,5,6,6,8,8,9,9,11,11,12,12,13,13,15,15,16,16,19,19,20,20,21,21,22,22,23,23,24,24,25,25,26,26,27,27,28,28,29,29,30,30,31,31,32,32,34,34,35,35,36,36,40,40],"right_children":[2,4,6,8,10,12,14,-1,16,18,-1,20,22,24,-1,26,28,-1,-1,30,32,34,36,38,40,42,44,46,48,50,52,54,56,-1,58,60,62,-1,-1,-1,64,-1,-1,-1,-1,-1,-1,-1,-1,-1,-1,-1,-1,-1,-1,-1,-1,-1,-1,-1,-1,-1,-1,-1,-1],"split_conditions":[-1.1869893E0,-1.2604309E0,1.540844E0,-2.1732059E0,-1.1974809E0,2.7135235E-1,1.8975606E0,1.0110875E-1,-1.7745225E0,-1.2289559E0,3.219544E-2,-2.2414312E-2,7.8544396E-1,1.6352689E0,3.8305696E-2,-1.8794392E0,-1.386331E0,4.038951E-2,5.8558244E-2,-1.0610893E0,7.201068E-2,2.9233566E-1,1.4254357E0,1.6142856E0,1.666744E0,-2.1312392E0,-1.8059976E0,-1.4597726E0,-1.3548559E0,-1.1555142E0,-3.686393E-1,3.004402E-2,1.6643567E-1,-4.7324732E-2,4.6020234E-1,1.4149439E0,1.4674023E0,1.219313E-2,8.048989E-3,2.8345868E-2,1.7087106E0,4.1973036E-2,7.232971E-2,4.282257E-2,5.4592844E-2,7.974597E-2,1.2360597E-1,4.546755E-2,7.902002E-2,-5.7816966E-3,7.907342E-3,-5.813905E-3,-1.0541019E-2,7.6110824E-3,3.0464614E-2,2.8432165E-3,-8.260484E-3,-1.0422285E-2,-1.6492695E-2,-2.563994E-2,-4.6190385E-2,-1.1009786E-2,3.295326E-3,6.10832E-3,2.1594157E-2],"split_indices":[1,1,1,1,1,1,1,0,1,1,0,1,1,1,0,1,1,0,0,1,1,1,1,1,1,1,1,1,1,1,1,1,1,0,1,1,1,0,0,0,1,0,0,0,0,0,0,0,0,0,0,0,0,0,0,0,0,0,0,0,0,0,0,0,0],"split_type":[0,0,0,0,0,0,0,0,0,0,0,0,0,0,0,0,0,0,0,0,0,0,0,0,0,0,0,0,0,0,0,0,0,0,0,0,0,0,0,0,0,0,0,0,0,0,0,0,0,0,0,0,0,0,0,0,0,0,0,0,0,0,0,0,0],"sum_hessian":[6.426E3,7.36E2,5.69E3,6.67E2,6.9E1,5.407E3,2.83E2,5.4E1,6.13E2,4.7E1,2.2E1,2.98E3,2.427E3,2.46E2,3.7E1,2.45E2,3.68E2,2E1,2.7E1,2.364E3,6.16E2,1.023E3,1.404E3,5.7E1,1.89E2,1.74E2,7.1E1,2.67E2,1.01E2,2.65E2,2.099E3,1.9E2,4.26E2,3E1,9.93E2,1.316E3,8.8E1,4.1E1,1.6E1,2.9E1,1.6E2,2.1E1,1.53E2,3.7E1,3.4E1,2.23E2,4.4E1,2.8E1,7.3E1,6.5E1,2E2,1.388E3,7.11E2,1.11E2,7.9E1,2E2,2.26E2,3.34E2,6.59E2,1.293E3,2.3E1,3.4E1,5.4E1,2.3E1,1.37E2],"tree_param":{"num_deleted":"0","num_feature":"2","num_nodes":"65","size_leaf_vector":"1"}},{"base_weights":[6.7045116E-3,6.8812096E-1,-8.313787E-2,9.073146E-2,6.6896087E-1,-9.796537E-2,2.0121157E-1,3.812057E-2,6.801381E-1,-4.1161425E-2,-1.7964105E-1,1.6617858E-1,4.0725505E-1,9.52163E-2,6.6928256E-1,-5.8511633E-2,9.021446E-3,-1.23560645E-1,-2.0909384E-1,8.334167E-2,1.837475E-1,4.124326E-2,1.0266623E-2,5.908172E-1,7.05248E-1,-3.7132435E-2,-1.0850566E-1,1.1091143E-1,-2.0081248E-2,-4.5781326E-2,-1.13442756E-1,-2.2558533E-1,-1.1390533E-2,1.1696073E-2,3.715076E-3,2.1764687E-1,1.14218205E-1,7.3285155E-2,5.4332983E-2,7.616743E-2,5.9592273E-2,-5.4462194E-3,1.0372142E-2,-2.157E-2,-5.836005E-3,2.5382855E-3,2.8297102E-2,-4.3819393E-3,1.3168993E-2,-1.2300241E-2,4.8130485E-3,-2.2208659E-2,-3.9251886E-2,-7.351273E-3,2.023659E-3,2.6562462E-2,2.015597E-2,1.2737918E-2,8.150805E-3],"categories":[],"categories_nodes":[],"categories_segments":[],"categories_sizes":[],"default_left":[0,0,0,0,0,0,0,0,0,0,0,0,0,0,0,0,0,0,0,0,0,0,0,0,0,0,0,0,0,0,0,0,0,0,0,0,0,0,0,0,0,0,0,0,0,0,0,0,0,0,0,0,0,0,0,0,0,0,0],"id":2,"left_children":[1,3,5,-1,7,9,11,-1,13,15,17,19,21,-1,23,25,27,29,31,33,35,-1,-1,37,39,41,43,45,47,-1,49,51,53,-1,-1,55,57,-1,-1,-1,-1,-1,-1,-1,-1,-1,-1,-1,-1,-1,-1,-1,-1,-1,-1,-1,-1,-1,-1],"loss_changes":[3.910086E2,2.5176697E0,2.381168E1,0E0,1.9535828E0,2.4878891E1,1.9534531E0,0E0,1.3146362E0,2.7562408E0,3.607956E0,3.3542728E-1,2.0737648E-2,0E0,1.3866272E0,2.5098639E0,2.4159594E0,2.5183306E0,4.695694E0,6.398222E-2,4.4182634E-1,0E0,0E0,9.9799347E-1,2.2172089E0,4.030798E0,3.7716417E0,2.656415E0,2.2899244E0,0E0,1.1473675E0,6.896286E-1,2.2153923E-1,0E0,0E0,4.834175E-2,1.846093E-2,0E0,0E0,0E0,0E0,0E0,0E0,0E0,0E0,0E0,0E0,0E0,0E0,0E0,0E0,0E0,0E0,0E0,0E0,0E0,0E0,0E0,0E0],"parents":[2147483647,0,0,1,1,2,2,4,4,5,5,6,6,8,8,9,9,10,10,11,11,12,12,14,14,15,15,16,16,17,17,18,18,19,19,20,20,23,23,24,24,25,25,26,26,27,27,28,28,30,30,31,31,32,32,35,35,36,36],"right_children":[2,4,6,-1,8,10,12,-1,14,16,18,20,22,-1,24,26,28,30,32,34,36,-1,-1,38,40,42,44,46,48,-1,50,52,54,-1,-1,56,58,-1,-1,-1,-1,-1,-1,-1,-1,-1,-1,-1,-1,-1,-1,-1,-1,-1,-1,-1,-1,-1,-1],"split_conditions":[-1.1974809E0,-2.1732059E0,1.5723189E0,9.073146E-2,-2.1312392E0,3.8676068E-1,1.8975606E0,3.812057E-2,-2.099764E0,-2.2414312E-2,7.644606E-1,1.6352689E0,1.9500189E0,9.52163E-2,-1.7745225E0,-3.686393E-1,7.201068E-2,3.9725232E-1,1.4254357E0,1.6142856E0,1.8031356E0,4.124326E-2,1.0266623E-2,-2.0263226E0,-1.386331E0,-4.6306428E-1,-2.5323096E-1,4.0535685E-2,3.3430234E-1,-4.5781326E-2,7.4347734E-1,1.4149439E0,1.4674023E0,1.1696073E-2,3.715076E-3,1.666744E0,1.8765773E0,7.3285155E-2,5.4332983E-2,7.616743E-2,5.9592273E-2,-5.4462194E-3,1.0372142E-2,-2.157E-2,-5.836005E-3,2.5382855E-3,2.8297102E-2,-4.3819393E-3,1.3168993E-2,-1.2300241E-2,4.8130485E-3,-2.2208659E-2,-3.9251886E-2,-7.351273E-3,2.023659E-3,2.6562462E-2,2.015597E-2,1.2737918E-2,8.150805E-3],"split_indices":[1,1,1,0,1,1,1,0,1,1,1,1,1,0,1,1,1,1,1,1,1,0,0,1,1,1,1,1,1,0,1,1,1,0,0,1,1,0,0,0,0,0,0,0,0,0,0,0,0,0,0,0,0,0,0,0,0,0,0],"split_type":[0,0,0,0,0,0,0,0,0,0,0,0,0,0,0,0,0,0,0,0,0,0,0,0,0,0,0,0,0,0,0,0,0,0,0,0,0,0,0,0,0,0,0,0,0,0,0,0,0,0,0,0,0,0,0,0,0,0,0],"sum_hessian":[6.385E3,7.43E2,5.642E3,5.6E1,6.87E2,5.363E3,2.79E2,2.7E1,6.6E2,3.164E3,2.199E3,2.4E2,3.9E1,2.2E1,6.38E2,2.351E3,8.13E2,7.59E2,1.44E3,4.3E1,1.97E2,3.8E1,1E0,2.06E2,4.32E2,1.648E3,7.03E2,1.8E2,6.33E2,2.1E1,7.38E2,1.329E3,1.11E2,2.4E1,1.9E1,1.31E2,6.6E1,4.8E1,1.58E2,2.81E2,1.51E2,1.468E3,1.8E2,2.23E2,4.8E2,1.21E2,5.9E1,5.48E2,8.5E1,6.97E2,4.1E1,1.304E3,2.5E1,3.7E1,7.4E1,2.9E1,1.02E2,4.5E1,2.1E1],"tree_param":{"num_deleted":"0","num_feature":"2","num_nodes":"59","size_leaf_vector":"1"}},{"base_weights":[1.4989179E-3,5.9091264E-1,-7.507831E-2,7.473519E-2,5.776789E-1,-8.717651E-2,1.5445538E-1,4.1187566E-2,5.833525E-1,-3.49507E-2,-1.7319189E-1,1.3473605E-1,2.7856652E-2,7.2275296E-2,5.691844E-1,-5.2228503E-2,-5.0272903E-4,-1.8130355E-1,-2.099298E-2,1.0241071E-1,1.556671E-1,1.7527176E-2,5.8452934E-1,-2.1946767E-2,-1.431974E-1,8.3196245E-2,-8.199046E-2,-1.2238412E-1,-2.0982993E-1,-5.920665E-3,-1.5862455E-3,1.3951184E-2,8.45172E-2,1.7250052E-2,1.0907561E-1,6.0414076E-2,5.238781E-2,-2.9133363E-3,2.3901505E-2,-1.994585E-2,-1.0212242E-2,2.541685E-3,1.1459727E-2,-1.3106579E-2,-3.7086413E-3,-1.6102998E-2,-7.372421E-4,-2.2092914E-2,-1.2398331E-2,5.4497044E-3,-3.596494E-3,-6.028058E-4,1.1836794E-2,7.752123E-3,1.555064E-2],"categories":[],"categories_nodes":[],"categories_segments":[],"categories_sizes":[],"default_left":[0,0,0,0,0,0,0,0,0,0,0,0,0,0,0,0,0,0,0,0,0,0,0,0,0,0,0,0,0,0,0,0,0,0,0,0,0,0,0,0,0,0,0,0,0,0,0,0,0,0,0,0,0,0,0],"id":3,"left_children":[1,3,5,-1,7,9,11,-1,13,15,17,19,-1,-1,21,23,25,27,29,31,33,-1,35,37,39,41,43,45,47,-1,49,-1,51,-1,53,-1,-1,-1,-1,-1,-1,-1,-1,-1,-1,-1,-1,-1,-1,-1,-1,-1,-1,-1,-1],"loss_changes":[2.8891263E2,1.09198E0,1.5744846E1,0E0,4.0223694E-1,2.417109E1,6.575265E-1,0E0,8.881836E-1,1.993845E0,2.5061073E0,1.5117931E-1,0E0,0E0,3.5363922E0,6.1425834E0,7.645714E0,3.2181816E0,7.703274E-2,5.4595828E-2,9.725976E-2,0E0,3.7220764E-1,3.1483028E0,1.2668161E0,1.000413E0,1.2468297E0,2.8078794E0,1.2103386E0,0E0,1.369249E-1,0E0,2.1526521E-1,0E0,4.947892E-2,0E0,0E0,0E0,0E0,0E0,0E0,0E0,0E0,0E0,0E0,0E0,0E0,0E0,0E0,0E0,0E0,0E0,0E0,0E0,0E0],"parents":[2147483647,0,0,1,1,2,2,4,4,5,5,6,6,8,8,9,9,10,10,11,11,14,14,15,15,16,16,17,17,18,18,19,19,20,20,22,22,23,23,24,24,25,25,26,26,27,27,28,28,30,30,32,32,34,34],"right_children":[2,4,6,-1,8,10,12,-1,14,16,18,20,-1,-1,22,24,26,28,30,32,34,-1,36,38,40,42,44,46,48,-1,50,-1,52,-1,54,-1,-1,-1,-1,-1,-1,-1,-1,-1,-1,-1,-1,-1,-1,-1,-1,-1,-1,-1,-1],"split_conditions":[-1.1974809E0,-2.1732059E0,1.5723189E0,7.473519E-2,-2.1312392E0,4.6020234E-1,1.8975606E0,4.1187566E-2,-2.0682893E0,-9.585597E-2,1.4254357E0,1.7087106E0,2.7856652E-2,7.2275296E-2,-2.0263226E0,-3.686393E-1,1.8741901E-1,7.8544396E-1,1.4674023E0,1.6142856E0,1.8451023E0,1.7527176E-2,-1.386331E0,-3.8962263E-1,-2.5323096E-1,9.060686E-3,3.13319E-1,7.0151067E-1,1.3519939E0,-5.920665E-3,1.4988773E0,1.3951184E-2,1.6352689E0,1.7250052E-2,1.8765773E0,6.0414076E-2,5.238781E-2,-2.9133363E-3,2.3901505E-2,-1.994585E-2,-1.0212242E-2,2.541685E-3,1.1459727E-2,-1.3106579E-2,-3.7086413E-3,-1.6102998E-2,-7.372421E-4,-2.2092914E-2,-1.2398331E-2,5.4497044E-3,-3.596494E-3,-6.028058E-4,1.1836794E-2,7.752123E-3,1.555064E-2],"split_indices":[1,1,1,0,1,1,1,0,1,1,1,1,0,0,1,1,1,1,1,1,1,0,1,1,1,1,1,1,1,0,1,0,1,0,1,0,0,0,0,0,0,0,0,0,0,0,0,0,0,0,0,0,0,0,0],"split_type":[0,0,0,0,0,0,0,0,0,0,0,0,0,0,0,0,0,0,0,0,0,0,0,0,0,0,0,0,0,0,0,0,0,0,0,0,0,0,0,0,0,0,0,0,0,0,0,0,0,0,0,0,0,0,0],"sum_hessian":[6.399E3,7.35E2,5.664E3,5.3E1,6.82E2,5.381E3,2.83E2,2.5E1,6.57E2,3.349E3,2.032E3,2.46E2,3.7E1,5.6E1,6.01E2,2.23E3,1.119E3,1.929E3,1.03E2,9.9E1,1.47E2,2.3E1,5.78E2,1.674E3,5.56E2,5.52E2,5.67E2,6.31E2,1.298E3,3.4E1,6.9E1,3E1,6.9E1,1.06E2,4.1E1,4.3E2,1.48E2,1.63E3,4.4E1,2.33E2,3.23E2,1.95E2,3.57E2,2.7E2,2.97E2,4.72E2,1.59E2,1.148E3,1.5E2,2.6E1,4.3E1,1.9E1,5E1,2.6E1,1.5E1],"tree_param":{"num_deleted":"0","num_feature":"2","num_nodes":"55","size_leaf_vector":"1"}},{"base_weights":[3.8937605E-3,5.593813E-1,-6.894972E-2,5.304775E-1,6.302159E-1,-8.091607E-2,1.461149E-1,7.088285E-2,5.0725657E-1,8.9201316E-2,5.4714006E-1,-3.6703683E-2,-1.5417665E-1,4.2997915E-2,1.7744762E-1,3.433691E-1,5.2315396E-1,2.7790798E-2,6.0873E-1,8.258661E-2,-4.4832326E-2,-3.0234922E-2,-1.4838676E-1,6.5369955E-3,-2.167136E-3,1.6465853E-1,2.3936236E-2,2.8737625E-2,3.9367635E-2,7.921351E-2,5.0111026E-1,7.327663E-2,5.1781034E-1,-4.3827207E-3,1.3992596E-1,-1.14188075E-1,-3.200763E-2,-1.5377115E-1,-2.5677128E-2,1.8773635E-1,7.72184E-2,4.458086E-2,5.413589E-2,4.3047838E-2,6.207357E-2,6.370333E-3,-2.6513575E-2,2.4985034E-2,6.71909E-3,-5.8911596E-3,-1.8553736E-2,3.104902E-3,-6.7420946E-3,-1.0897125E-2,-1.729759E-2,1.5825492E-3,-1.4147192E-2,1.6862126E-2,2.2685258E-2,1.0661484E-2,3.2100105E-3],"categories":[],"categories_nodes":[],"categories_segments":[],"categories_sizes":[],"default_left":[0,0,0,0,0,0,0,0,0,0,0,0,0,0,0,0,0,0,0,0,0,0,0,0,0,0,0,0,0,0,0,0,0,0,0,0,0,0,0,0,0,0,0,0,0,0,0,0,0,0,0,0,0,0,0,0,0,0,0,0,0],"id":4,"left_children":[1,3,5,7,9,11,13,-1,15,-1,17,19,21,23,25,27,29,-1,31,33,35,-1,37,-1,-1,39,-1,-1,-1,-1,41,-1,43,45,47,49,51,53,55,57,59,-1,-1,-1,-1,-1,-1,-1,-1,-1,-1,-1,-1,-1,-1,-1,-1,-1,-1,-1,-1],"loss_changes":[2.593296E2,1.1868896E0,1.4593498E1,1.8519897E0,4.079239E0,1.7381424E1,9.584198E-1,0E0,1.060524E0,0E0,2.5171127E0,3.251121E0,1.6880989E0,1.041383E-1,1.4191628E-1,1.3624668E-2,2.1645355E0,0E0,1.0978966E0,1.0677807E0,2.7857113E0,0E0,1.2818031E0,0E0,0E0,3.749628E-1,0E0,0E0,0E0,0E0,6.5343475E-1,0E0,4.4289207E-1,1.5437033E0,1.0146132E0,1.917655E0,5.915197E0,1.5848846E0,4.011192E-1,7.540035E-2,5.228296E-2,0E0,0E0,0E0,0E0,0E0,0E0,0E0,0E0,0E0,0E0,0E0,0E0,0E0,0E0,0E0,0E0,0E0,0E0,0E0,0E0],"parents":[2147483647,0,0,1,1,2,2,3,3,4,4,5,5,6,6,8,8,10,10,11,11,12,12,13,13,14,14,15,15,16,16,18,18,19,19,20,20,22,22,25,25,30,30,32,32,33,33,34,34,35,35,36,36,37,37,38,38,39,39,40,40],"right_children":[2,4,6,8,10,12,14,-1,16,-1,18,20,22,24,26,28,30,-1,32,34,36,-1,38,-1,-1,40,-1,-1,-1,-1,42,-1,44,46,48,50,52,54,56,58,60,-1,-1,-1,-1,-1,-1,-1,-1,-1,-1,-1,-1,-1,-1,-1,-1,-1,-1,-1,-1],"split_conditions":[-1.1974809E0,-1.4597726E0,1.540844E0,-2.1732059E0,-1.386331E0,4.6020234E-1,1.6352689E0,7.088285E-2,-2.099764E0,8.9201316E-2,-1.3548559E0,-1.0925642E0,4.9167734E-1,1.6142856E0,1.8975606E0,-2.1312392E0,-2.0682893E0,2.7790798E-2,-1.2919059E0,-1.1555142E0,-8.5125595E-1,-3.0234922E-2,1.4254357E0,6.5369955E-3,-2.167136E-3,1.8451023E0,2.3936236E-2,2.8737625E-2,3.9367635E-2,7.921351E-2,-1.7745225E0,7.327663E-2,-1.2289559E0,-1.166006E0,-1.1345309E0,-9.6666425E-1,-3.686393E-1,7.8544396E-1,1.4988773E0,1.7716606E0,1.8765773E0,4.458086E-2,5.413589E-2,4.3047838E-2,6.207357E-2,6.370333E-3,-2.6513575E-2,2.4985034E-2,6.71909E-3,-5.8911596E-3,-1.8553736E-2,3.104902E-3,-6.7420946E-3,-1.0897125E-2,-1.729759E-2,1.5825492E-3,-1.4147192E-2,1.6862126E-2,2.2685258E-2,1.0661484E-2,3.2100105E-3],"split_indices":[1,1,1,1,1,1,1,0,1,0,1,1,1,1,1,1,1,0,1,1,1,0,1,0,0,1,0,0,0,0,1,0,1,1,1,1,1,1,1,1,1,0,0,0,0,0,0,0,0,0,0,0,0,0,0,0,0,0,0,0,0],"split_type":[0,0,0,0,0,0,0,0,0,0,0,0,0,0,0,0,0,0,0,0,0,0,0,0,0,0,0,0,0,0,0,0,0,0,0,0,0,0,0,0,0,0,0,0,0,0,0,0,0,0,0,0,0,0,0,0,0,0,0,0,0],"sum_hessian":[6.407E3,7.42E2,5.665E3,5.33E2,2.09E2,5.367E3,2.98E2,5.8E1,4.75E2,4.8E1,1.61E2,3.348E3,2.019E3,7E1,2.28E2,4.4E1,4.31E2,3.1E1,1.3E2,2.13E2,3.135E3,7.4E1,1.945E3,5.2E1,1.8E1,1.92E2,3.6E1,2.4E1,2E1,3E1,4.01E2,5.2E1,7.8E1,8.5E1,1.28E2,4.88E2,2.647E3,1.863E3,8.2E1,1.51E2,4.1E1,1.74E2,2.27E2,4.5E1,3.3E1,6.8E1,1.7E1,5E1,7.8E1,2.76E2,2.12E2,9.52E2,1.695E3,5.61E2,1.302E3,6.1E1,2.1E1,1.05E2,4.6E1,2.4E1,1.7E1],"tree_param":{"num_deleted":"0","num_feature":"2","num_nodes":"61","size_leaf_vector":"1"}},{"base_weights":[-5.5991965E-3,-1.9010471E-1,5.174448E-1,1.00037344E-1,-2.9442516E-1,3.447123E-1,6.661875E-1,1.3277273E-1,-1.6915262E-2,-3.3478534E-1,2.5200475E-2,2.1625489E-1,4.3117645E-1,5.5215937E-1,7.4921185E-1,2.9956788E-1,1.237015E-1,8.616774E-4,-5.7558525E-2,-3.5494778E-1,-2.0504475E-1,3.5627905E-2,7.428357E-3,2.8594536E-1,8.3777696E-2,4.455281E-1,1.7227095E-2,5.926164E-1,-3.2229276E-4,9.9073716E-2,7.2300714E-1,3.376166E-2,2.442811E-2,1.3351297E-1,8.7025836E-2,-5.497906E-2,3.3087943E-2,-1.7329035E-2,-1.3697393E-2,-2.6037833E-1,-4.043109E-1,-1.9168068E-1,-5.3050715E-2,-3.2593146E-2,3.534745E-2,3.9580646E-1,2.5708842E-1,-1.4323549E-2,1.3275006E-1,3.509083E-1,4.7204703E-1,7.6226294E-1,5.68193E-1,5.108233E-1,7.6127106E-1,5.8852504E-3,1.3899371E-2,4.206587E-3,9.440463E-3,-2.727943E-3,-1.4849158E-2,5.6178924E-3,-6.785635E-4,-5.0908863E-3,1.8444667E-3,-1.9603306E-2,-2.9084746E-2,-4.2543698E-2,-3.604876E-2,-2.1390336E-2,-6.764808E-3,-1.6187199E-3,1.1038852E-2,2.8557299E-2,5.5019796E-2,1.2848049E-2,3.146247E-2,1.840256E-2,-3.6433393E-3,4.175618E-2,2.8392201E-2,5.3754266E-2,4.289424E-2,5.9764218E-2,8.722696E-2,5.512873E-2,7.355536E-2,6.528597E-2,4.5451608E-2,7.773905E-2,5.210759E-2],"categories":[],"categories_nodes":[],"categories_segments":[],"categories_sizes":[],"default_left":[0,0,0,0,0,0,0,0,0,0,0,0,0,0,0,0,0,0,0,0,0,0,0,0,0,0,0,0,0,0,0,0,0,0,0,0,0,0,0,0,0,0,0,0,0,0,0,0,0,0,0,0,0,0,0,0,0,0,0,0,0,0,0,0,0,0,0,0,0,0,0,0,0,0,0,0,0,0,0,0,0,0,0,0,0,0,0,0,0,0,0],"id":5,"left_children":[1,3,5,7,9,11,13,15,17,19,21,23,25,27,29,31,33,35,37,39,41,-1,43,45,47,49,-1,51,-1,-1,53,-1,-1,55,57,59,61,-1,63,65,67,69,-1,-1,71,73,75,-1,77,79,81,83,85,87,89,-1,-1,-1,-1,-1,-1,-1,-1,-1,-1,-1,-1,-1,-1,-1,-1,-1,-1,-1,-1,-1,-1,-1,-1,-1,-1,-1,-1,-1,-1,-1,-1,-1,-1,-1,-1],"loss_changes":[6.2062225E2,1.439223E2,4.2856964E1,4.8184843E0,4.51203E1,8.547966E0,8.10672E0,1.4502583E0,1.9946311E-1,8.04953E0,2.3097527E0,2.8842487E0,1.6473465E0,8.60759E0,2.5621643E0,2.2706032E-2,3.2447243E-1,3.4913006E-1,4.2402118E-1,1.2433655E1,1.7251015E0,0E0,3.492378E0,5.513153E-1,1.2419257E0,9.358978E-1,0E0,1.046051E0,0E0,0E0,3.4351807E0,0E0,0E0,2.9257965E-1,6.2378883E-2,1.7985784E-1,1.1362979E-1,0E0,7.50943E-2,1.754528E0,1.4788513E0,1.1018457E0,0E0,0E0,1.3398434E0,5.406623E-1,1.1879139E0,0E0,7.961267E-1,3.279314E-1,7.2930145E-1,2.3929024E-1,4.8857117E-1,3.0309105E-1,1.1320343E0,0E0,0E0,0E0,0E0,0E0,0E0,0E0,0E0,0E0,0E0,0E0,0E0,0E0,0E0,0E0,0E0,0E0,0E0,0E0,0E0,0E0,0E0,0E0,0E0,0E0,0E0,0E0,0E0,0E0,0E0,0E0,0E0,0E0,0E0,0E0,0E0],"parents":[2147483647,0,0,1,1,2,2,3,3,4,4,5,5,6,6,7,7,8,8,9,9,10,10,11,11,12,12,13,13,14,14,15,15,16,16,17,17,18,18,19,19,20,20,22,22,23,23,24,24,25,25,27,27,30,30,33,33,34,34,35,35,36,36,38,38,39,39,40,40,41,41,44,44,45,45,46,46,48,48,49,49,50,50,51,51,52,52,53,53,54,54],"right_children":[2,4,6,8,10,12,14,16,18,20,22,24,26,28,30,32,34,36,38,40,42,-1,44,46,48,50,-1,52,-1,-1,54,-1,-1,56,58,60,62,-1,64,66,68,70,-1,-1,72,74,76,-1,78,80,82,84,86,88,90,-1,-1,-1,-1,-1,-1,-1,-1,-1,-1,-1,-1,-1,-1,-1,-1,-1,-1,-1,-1,-1,-1,-1,-1,-1,-1,-1,-1,-1,-1,-1,-1,-1,-1,-1,-1],"split_conditions":[8.394221E-1,-1.0432099E0,1.1580213E0,-1.2363003E0,6.559862E-1,9.745854E-1,1.3221483E0,-1.9700441E0,-1.101137E0,4.4358665E-1,6.656407E-1,9.263128E-1,1.1483668E0,1.3124938E0,1.3414574E0,-2.0279713E0,-1.3714637E0,-1.1880277E0,-1.081828E0,-4.8324758E-1,6.4633167E-1,3.5627905E-2,6.7529523E-1,8.5873115E-1,9.359673E-1,1.0132035E0,1.7227095E-2,1.1773304E0,-3.2229276E-4,9.9073716E-2,1.3800755E0,3.376166E-2,2.442811E-2,-1.8734989E0,-1.3521546E0,-1.1976823E0,-1.1301006E0,-1.7329035E-2,-1.062519E0,-8.501195E-1,1.4429644E-1,6.173681E-1,-5.3050715E-2,-3.2593146E-2,7.6218593E-1,8.490766E-1,8.780402E-1,-1.4323549E-2,9.649309E-1,9.9389446E-1,1.0614761E0,1.1676759E0,1.3028393E0,1.3511119E0,1.814529E0,5.8852504E-3,1.3899371E-2,4.206587E-3,9.440463E-3,-2.727943E-3,-1.4849158E-2,5.6178924E-3,-6.785635E-4,-5.0908863E-3,1.8444667E-3,-1.9603306E-2,-2.9084746E-2,-4.2543698E-2,-3.604876E-2,-2.1390336E-2,-6.764808E-3,-1.6187199E-3,1.1038852E-2,2.8557299E-2,5.5019796E-2,1.2848049E-2,3.146247E-2,1.840256E-2,-3.6433393E-3,4.175618E-2,2.8392201E-2,5.3754266E-2,4.289424E-2,5.9764218E-2,8.722696E-2,5.512873E-2,7.355536E-2,6.528597E-2,4.5451608E-2,7.773905E-2,5.210759E-2],"split_indices":[0,0,0,0,0,0,0,0,0,0,0,0,0,0,0,0,0,0,0,0,0,0,0,0,0,0,0,0,0,0,0,0,0,0,0,0,0,0,0,0,0,0,0,0,0,0,0,0,0,0,0,0,0,0,0,0,0,0,0,0,0,0,0,0,0,0,0,0,0,0,0,0,0,0,0,0,0,0,0,0,0,0,0,0,0,0,0,0,0,0,0],"split_type":[0,0,0,0,0,0,0,0,0,0,0,0,0,0,0,0,0,0,0,0,0,0,0,0,0,0,0,0,0,0,0,0,0,0,0,0,0,0,0,0,0,0,0,0,0,0,0,0,0,0,0,0,0,0,0,0,0,0,0,0,0,0,0,0,0,0,0,0,0,0,0,0,0,0,0,0,0,0,0,0,0,0,0,0,0,0,0,0,0,0,0],"sum_hessian":[6.429E3,4.753E3,1.676E3,1.257E3,3.496E3,7.77E2,8.99E2,9.82E2,2.75E2,3.104E3,3.92E2,3.14E2,4.63E2,3.82E2,5.17E2,4.9E1,9.33E2,1.92E2,8.3E1,2.685E3,4.19E2,1.9E1,3.73E2,2.05E2,1.09E2,4.38E2,2.5E1,3.56E2,2.6E1,4.7E1,4.7E2,2.6E1,2.3E1,7.34E2,1.99E2,7E1,1.22E2,2.2E1,6.1E1,9.23E2,1.762E3,4.04E2,1.5E1,2.8E1,3.45E2,4E1,1.65E2,1.9E1,9E1,9.9E1,3.39E2,4.1E1,3.15E2,7.4E1,3.96E2,5.1E1,6.83E2,2.9E1,1.7E2,5.5E1,1.5E1,7.7E1,4.5E1,2.8E1,3.3E1,2.99E2,6.24E2,1.183E3,5.79E2,3.42E2,6.2E1,2.05E2,1.4E2,2.5E1,1.5E1,5.2E1,1.13E2,6.9E1,2.1E1,4.7E1,5.2E1,1.3E2,2.09E2,1.9E1,2.2E1,2.9E2,2.5E1,1.8E1,5.6E1,3.69E2,2.7E1],"tree_param":{"num_deleted":"0","num_feature":"2","num_nodes":"91","size_leaf_vector":"1"}},{"base_weights":[2.9251925E-3,-1.6953012E-1,4.7867277E-1,1.0862622E-1,-2.606254E-1,3.1777278E-1,6.2354136E-1,1.4154598E-1,2.2820149E-2,-3.0546468E-1,-4.7104765E-2,1.8437625E-1,3.5441837E-1,5.7360107E-1,8.4203434E-1,3.002949E-2,1.3546914E-1,6.273054E-3,1.963406E-2,-2.2274745E-1,-3.6376858E-1,8.5506804E-2,-6.886632E-2,2.4282648E-1,1.1894336E-1,3.692964E-1,-5.558194E-3,8.3496255E-1,5.5521244E-1,7.707125E-1,9.768648E-2,9.7052485E-2,1.445259E-1,-6.6275746E-2,2.2435708E-2,-1.8573913E-1,-2.7856684E-1,-3.8552606E-1,-2.3753075E-1,3.5550464E-2,2.5108302E-2,-2.7251297E-1,-2.9176757E-2,1.5956225E-2,2.637393E-1,-4.2847595E-3,1.7965367E-1,3.5261863E-1,7.454517E-2,6.964555E-2,9.431891E-2,4.6771067E-1,6.342961E-1,9.0955965E-2,7.2035916E-2,1.1302625E-2,5.207491E-3,2.8865004E-2,1.3047615E-2,-3.0590545E-3,-8.184488E-3,1.6804844E-4,5.4534E-3,-1.4077346E-2,-2.0929372E-2,-4.8352588E-2,-2.53074E-2,-4.0008035E-2,-3.3400796E-2,-3.2320272E-3,-2.757368E-2,-4.89681E-3,7.983702E-3,-9.2203105E-3,-3.8863476E-2,2.2239663E-2,-4.0354915E-3,3.2148533E-2,2.3007309E-2,2.752094E-2,9.286635E-3,3.1443052E-2,4.1205794E-2,5.0413854E-2,4.5822473E-4,6.70613E-2,5.2239854E-2],"categories":[],"categories_nodes":[],"categories_segments":[],"categories_sizes":[],"default_left":[0,0,0,0,0,0,0,0,0,0,0,0,0,0,0,0,0,0,0,0,0,0,0,0,0,0,0,0,0,0,0,0,0,0,0,0,0,0,0,0,0,0,0,0,0,0,0,0,0,0,0,0,0,0,0,0,0,0,0,0,0,0,0,0,0,0,0,0,0,0,0,0,0,0,0,0,0,0,0,0,0,0,0,0,0,0,0],"id":6,"left_children":[1,3,5,7,9,11,13,15,17,19,21,23,25,27,29,-1,31,33,-1,35,37,39,41,43,45,47,-1,49,51,53,-1,55,57,59,61,63,65,67,69,71,-1,73,75,-1,77,-1,79,81,-1,-1,-1,83,85,-1,-1,-1,-1,-1,-1,-1,-1,-1,-1,-1,-1,-1,-1,-1,-1,-1,-1,-1,-1,-1,-1,-1,-1,-1,-1,-1,-1,-1,-1,-1,-1,-1,-1],"loss_changes":[5.2393976E2,1.1879091E2,3.940448E1,3.264967E0,3.3791794E1,3.8795853E0,9.261078E0,7.658024E-1,9.2331386E-1,1.399173E1,1.7777911E0,6.4424086E-1,3.8757172E0,3.0448608E0,8.242035E-1,0E0,2.667532E-1,3.473984E-1,0E0,2.4457893E0,4.6051483E0,7.107016E-1,4.259687E0,1.181159E-1,8.426E-1,3.5639343E0,0E0,3.2661438E-2,4.443512E0,1.278305E-1,0E0,1.0691249E-1,1.2805529E0,2.7498066E-2,1.6113049E-1,7.437134E-1,2.3856316E0,9.588318E-1,1.982521E0,2.584359E-1,0E0,1.7648263E0,1.2547472E0,0E0,6.600952E-2,0E0,4.886098E-1,1.200592E0,0E0,0E0,0E0,5.5481796E0,1.1004333E0,0E0,0E0,0E0,0E0,0E0,0E0,0E0,0E0,0E0,0E0,0E0,0E0,0E0,0E0,0E0,0E0,0E0,0E0,0E0,0E0,0E0,0E0,0E0,0E0,0E0,0E0,0E0,0E0,0E0,0E0,0E0,0E0,0E0,0E0],"parents":[2147483647,0,0,1,1,2,2,3,3,4,4,5,5,6,6,7,7,8,8,9,9,10,10,11,11,12,12,13,13,14,14,16,16,17,17,19,19,20,20,21,21,22,22,23,23,24,24,25,25,27,27,28,28,29,29,31,31,32,32,33,33,34,34,35,35,36,36,37,37,38,38,39,39,41,41,42,42,44,44,46,46,47,47,51,51,52,52],"right_children":[2,4,6,8,10,12,14,16,18,20,22,24,26,28,30,-1,32,34,-1,36,38,40,42,44,46,48,-1,50,52,54,-1,56,58,60,62,64,66,68,70,72,-1,74,76,-1,78,-1,80,82,-1,-1,-1,84,86,-1,-1,-1,-1,-1,-1,-1,-1,-1,-1,-1,-1,-1,-1,-1,-1,-1,-1,-1,-1,-1,-1,-1,-1,-1,-1,-1,-1,-1,-1,-1,-1,-1,-1],"split_conditions":[8.297676E-1,-1.101137E0,1.1580213E0,-1.3135365E0,5.3047734E-1,8.9734924E-1,1.5731659E0,-2.0279713E0,-1.1204461E0,-3.5773876E-1,5.7875E-1,8.683857E-1,1.1483668E0,1.1773304E0,1.7372928E0,3.002949E-2,-1.7479901E0,-1.284573E0,1.963406E-2,-6.57029E-1,4.0496856E-1,5.690955E-1,6.173681E-1,8.394221E-1,8.780402E-1,1.1387123E0,-5.558194E-3,1.1676759E0,1.3221483E0,1.6021295E0,9.768648E-2,-1.7962627E0,-1.6997175E0,-1.303882E0,-1.1880277E0,-9.2735565E-1,-6.280654E-1,2.3118715E-1,4.242776E-1,5.4013187E-1,2.5108302E-2,5.9805906E-1,6.270226E-1,1.5956225E-2,8.490766E-1,-4.2847595E-3,8.876947E-1,1.0518216E0,7.454517E-2,6.964555E-2,9.431891E-2,1.3124938E0,1.4862752E0,9.0955965E-2,7.2035916E-2,1.1302625E-2,5.207491E-3,2.8865004E-2,1.3047615E-2,-3.0590545E-3,-8.184488E-3,1.6804844E-4,5.4534E-3,-1.4077346E-2,-2.0929372E-2,-4.8352588E-2,-2.53074E-2,-4.0008035E-2,-3.3400796E-2,-3.2320272E-3,-2.757368E-2,-4.89681E-3,7.983702E-3,-9.2203105E-3,-3.8863476E-2,2.2239663E-2,-4.0354915E-3,3.2148533E-2,2.3007309E-2,2.752094E-2,9.286635E-3,3.1443052E-2,4.1205794E-2,5.0413854E-2,4.5822473E-4,6.70613E-2,5.2239854E-2],"split_indices":[0,0,0,0,0,0,0,0,0,0,0,0,0,0,0,0,0,0,0,0,0,0,0,0,0,0,0,0,0,0,0,0,0,0,0,0,0,0,0,0,0,0,0,0,0,0,0,0,0,0,0,0,0,0,0,0,0,0,0,0,0,0,0,0,0,0,0,0,0,0,0,0,0,0,0,0,0,0,0,0,0,0,0,0,0,0,0],"split_type":[0,0,0,0,0,0,0,0,0,0,0,0,0,0,0,0,0,0,0,0,0,0,0,0,0,0,0,0,0,0,0,0,0,0,0,0,0,0,0,0,0,0,0,0,0,0,0,0,0,0,0,0,0,0,0,0,0,0,0,0,0,0,0,0,0,0,0,0,0,0,0,0,0,0,0,0,0,0,0,0,0,0,0,0,0,0,0],"sum_hessian":[6.384E3,4.686E3,1.698E3,1.156E3,3.53E3,8.06E2,8.92E2,8.35E2,3.21E2,2.917E3,6.13E2,1.75E2,6.31E2,7.29E2,1.63E2,2.9E1,8.06E2,2.94E2,2.7E1,1.208E3,1.709E3,8.6E1,5.27E2,9.1E1,8.4E1,6.09E2,2.2E1,4.5E1,6.84E2,1.11E2,5.2E1,1.56E2,6.5E2,5.3E1,2.41E2,7.29E2,4.79E2,1.456E3,2.53E2,6.7E1,1.9E1,8.5E1,4.42E2,2E1,7.1E1,2.3E1,6.1E1,5.85E2,2.4E1,2.3E1,2.2E1,3.28E2,3.56E2,2.5E1,8.6E1,1.14E2,4.2E1,5.6E1,5.94E2,1.7E1,3.6E1,1.47E2,9.4E1,2.53E2,4.76E2,5.1E1,4.28E2,1.13E3,3.26E2,4E1,2.13E2,2.3E1,4.4E1,3.4E1,5.1E1,1.8E1,4.24E2,2.3E1,4.8E1,2.8E1,3.3E1,3.6E2,2.25E2,3.04E2,2.4E1,2.65E2,9.1E1],"tree_param":{"num_deleted":"0","num_feature":"2","num_nodes":"87","size_leaf_vector":"1"}},{"base_weights":[5.286054E-4,3.971467E-1,-5.0251998E-2,4.713523E-1,3.8098243E-1,-5.8219638E-2,1.4161395E-1,3.9144632E-1,7.946425E-2,3.4571105E-1,4.5138246E-1,-1.9503478E-2,-1.1944236E-1,1.6988376E-1,1.1676174E-1,4.711367E-1,3.0422813E-1,3.825006E-1,2.9021713E-1,9.458343E-2,3.842019E-1,-2.1311348E-2,2.316237E-2,-1.2733063E-1,2.9781789E-2,2.0896485E-2,1.541777E-2,9.5930815E-2,1.6908092E-2,3.62367E-2,5.1806282E-2,1.0195025E-2,4.7396813E-2,2.7050835E-1,4.1416222E-1,-4.6138833E-3,3.6175337E-1,4.9841266E-2,3.6551264E-1,6.594417E-2,-2.6065992E-2,-8.373752E-2,-1.4663818E-1,9.012572E-3,1.0285157E-2,1.062959E-1,4.0700985E-3,3.0513242E-2,2.3274275E-2,5.4508336E-2,3.578923E-2,4.603872E-2,3.068353E-2,2.3877066E-2,3.9402056E-2,1.5276864E-2,4.018225E-3,-6.4103343E-3,-1.8124871E-3,-1.6788328E-2,-4.464247E-3,-1.53573705E-2,-8.9515615E-3,2.154899E-3,-2.5710175E-3,8.753574E-3,1.1327106E-2],"categories":[],"categories_nodes":[],"categories_segments":[],"categories_sizes":[],"default_left":[0,0,0,0,0,0,0,0,0,0,0,0,0,0,0,0,0,0,0,0,0,0,0,0,0,0,0,0,0,0,0,0,0,0,0,0,0,0,0,0,0,0,0,0,0,0,0,0,0,0,0,0,0,0,0,0,0,0,0,0,0,0,0,0,0,0,0],"id":7,"left_children":[1,3,5,7,9,11,13,15,-1,17,19,21,23,25,27,29,31,33,35,-1,37,39,-1,41,43,-1,-1,45,-1,-1,-1,-1,-1,47,49,-1,51,-1,53,55,57,59,61,-1,63,65,-1,-1,-1,-1,-1,-1,-1,-1,-1,-1,-1,-1,-1,-1,-1,-1,-1,-1,-1,-1,-1],"loss_changes":[1.2918103E2,6.936493E-1,8.700541E0,2.9438763E0,1.3412628E0,1.2939554E1,1.39647E-1,5.725632E-1,0E0,7.1787643E-1,6.2136803E0,1.5240371E0,2.4934025E0,3.1618357E-2,1.1892223E-1,7.768631E-2,1.7370801E0,7.425194E-1,4.0109234E0,0E0,1.9350052E-1,1.3803285E0,0E0,1.6786499E0,1.249589E-1,0E0,0E0,4.77677E-2,0E0,0E0,0E0,0E0,0E0,2.2087097E-3,1.1751671E0,0E0,6.008339E-1,0E0,4.6595764E-1,3.785851E-1,9.509287E-1,2.028819E0,5.3733253E-1,0E0,3.380055E-2,2.9683113E-5,0E0,0E0,0E0,0E0,0E0,0E0,0E0,0E0,0E0,0E0,0E0,0E0,0E0,0E0,0E0,0E0,0E0,0E0,0E0,0E0,0E0],"parents":[2147483647,0,0,1,1,2,2,3,3,4,4,5,5,6,6,7,7,9,9,10,10,11,11,12,12,13,13,14,14,15,15,16,16,17,17,18,18,20,20,21,21,23,23,24,24,27,27,33,33,34,34,36,36,38,38,39,39,40,40,41,41,42,42,44,44,45,45],"right_children":[2,4,6,8,10,12,14,16,-1,18,20,22,24,26,28,30,32,34,36,-1,38,40,-1,42,44,-1,-1,46,-1,-1,-1,-1,-1,48,50,-1,52,-1,54,56,58,60,62,-1,64,66,-1,-1,-1,-1,-1,-1,-1,-1,-1,-1,-1,-1,-1,-1,-1,-1,-1,-1,-1,-1,-1],"split_conditions":[-1.1974809E0,-2.0682893E0,1.6352689E0,-2.099764E0,-1.4597726E0,4.6020234E-1,1.7716606E0,-2.1732059E0,7.946425E-2,-1.6800976E0,-1.4178059E0,4.4971067E-1,1.4674023E0,1.666744E0,1.8975606E0,-2.2151725E0,-2.1312392E0,-1.9843559E0,-1.6486225E0,9.458343E-2,-1.386331E0,-1.1135476E0,2.316237E-2,7.644606E-1,1.4988773E0,2.0896485E-2,1.541777E-2,1.8765773E0,1.6908092E-2,3.62367E-2,5.1806282E-2,1.0195025E-2,4.7396813E-2,-2.0263226E0,-1.8794392E0,-4.6138833E-3,-1.5856726E0,4.9841266E-2,-1.3548559E0,-1.1764976E0,-8.5125595E-1,5.441357E-1,1.3729773E0,9.012572E-3,1.6142856E0,1.8031356E0,4.0700985E-3,3.0513242E-2,2.3274275E-2,5.4508336E-2,3.578923E-2,4.603872E-2,3.068353E-2,2.3877066E-2,3.9402056E-2,1.5276864E-2,4.018225E-3,-6.4103343E-3,-1.8124871E-3,-1.6788328E-2,-4.464247E-3,-1.53573705E-2,-8.9515615E-3,2.154899E-3,-2.5710175E-3,8.753574E-3,1.1327106E-2],"split_indices":[1,1,1,1,1,1,1,1,0,1,1,1,1,1,1,1,1,1,1,0,1,1,0,1,1,0,0,1,0,0,0,0,0,1,1,0,1,0,1,1,1,1,1,0,1,1,0,0,0,0,0,0,0,0,0,0,0,0,0,0,0,0,0,0,0,0,0],"split_type":[0,0,0,0,0,0,0,0,0,0,0,0,0,0,0,0,0,0,0,0,0,0,0,0,0,0,0,0,0,0,0,0,0,0,0,0,0,0,0,0,0,0,0,0,0,0,0,0,0,0,0,0,0,0,0,0,0,0,0,0,0,0,0,0,0,0,0],"sum_hessian":[6.412E3,7.27E2,5.685E3,1.25E2,6.02E2,5.459E3,2.26E2,1.02E2,2.3E1,4.05E2,1.97E2,3.345E3,2.114E3,1.03E2,1.23E2,5.1E1,5.1E1,2.4E2,1.65E2,2.2E1,1.75E2,3.322E3,2.3E1,2.008E3,1.06E2,2.6E1,7.7E1,9E1,3.3E1,1.8E1,3.3E1,2.4E1,2.7E1,5.5E1,1.85E2,2.9E1,1.36E2,2.1E1,1.54E2,1.71E2,3.151E3,6.18E2,1.39E3,2.5E1,8.1E1,7.5E1,1.5E1,2.5E1,3E1,5.3E1,1.32E2,4.6E1,9E1,3E1,1.24E2,3.8E1,1.33E2,5.43E2,2.608E3,1.95E2,4.23E2,1.238E3,1.52E2,6.2E1,1.9E1,2.4E1,5.1E1],"tree_param":{"num_deleted":"0","num_feature":"2","num_nodes":"67","size_leaf_vector":"1"}},{"base_weights":[-7.0561114E-4,-1.4921208E-1,4.1823846E-1,8.829972E-2,-2.3344786E-1,2.6189312E-1,5.358357E-1,1.287167E-1,2.040051E-2,-2.6995146E-1,-1.5195822E-2,2.1302952E-1,3.6459947E-1,5.007078E-1,7.1344465E-1,2.951604E-2,1.22348174E-1,3.7217654E-2,-1.069204E-2,-1.9131291E-1,-2.9791465E-1,-3.3569988E-2,1.2102626E-1,2.8856438E-1,1.5916006E-1,6.4007826E-2,3.3414862E-1,4.4999096E-1,5.595734E-1,7.562027E-2,5.0865408E-2,1.1273057E-1,1.5184987E-1,2.5200382E-2,9.072793E-2,-1.808811E-2,1.7084565E-3,-1.4718781E-1,-2.2983457E-1,-3.221247E-1,-1.9040158E-1,-2.041335E-2,-1.225385E-1,1.6782902E-2,2.6114974E-3,2.6125443E-1,3.653715E-2,5.8016308E-2,2.24344E-1,3.6843216E-1,2.5825445E-2,4.7646406E-1,3.0345304E-3,8.31914E-2,5.161226E-1,1.256081E-2,6.5778666E-3,2.5195664E-2,1.3355029E-2,5.971843E-3,1.2093049E-3,1.2449198E-2,5.372361E-3,3.4416918E-4,-4.572175E-3,-1.1246999E-2,-1.7444981E-2,-2.4505734E-2,-1.3253833E-2,-3.3535074E-2,-2.8376192E-2,-1.6791223E-2,-5.605315E-2,-4.307256E-3,2.419225E-2,-8.888482E-3,-2.1084316E-2,3.4754187E-2,1.9258954E-2,1.2436406E-2,-2.6335372E-2,3.812087E-2,1.9584848E-2,2.8351367E-2,4.3176156E-2,6.8668924E-2,4.6106946E-2,3.7281077E-2,5.6E-2],"categories":[],"categories_nodes":[],"categories_segments":[],"categories_sizes":[],"default_left":[0,0,0,0,0,0,0,0,0,0,0,0,0,0,0,0,0,0,0,0,0,0,0,0,0,0,0,0,0,0,0,0,0,0,0,0,0,0,0,0,0,0,0,0,0,0,0,0,0,0,0,0,0,0,0,0,0,0,0,0,0,0,0,0,0,0,0,0,0,0,0,0,0,0,0,0,0,0,0,0,0,0,0,0,0,0,0,0,0],"id":8,"left_children":[1,3,5,7,9,11,13,15,17,19,21,23,25,27,29,-1,31,33,35,37,39,41,43,45,47,-1,49,51,53,-1,-1,55,57,59,61,63,-1,65,67,69,71,73,75,-1,-1,77,-1,79,81,83,-1,85,-1,-1,87,-1,-1,-1,-1,-1,-1,-1,-1,-1,-1,-1,-1,-1,-1,-1,-1,-1,-1,-1,-1,-1,-1,-1,-1,-1,-1,-1,-1,-1,-1,-1,-1,-1,-1],"loss_changes":[3.998618E2,9.49538E1,3.0784546E1,3.408516E0,2.7904251E1,3.5557976E0,5.626007E0,7.8962994E-1,2.4354081E-1,6.542145E0,1.2630553E0,1.9600983E0,1.7322655E0,2.1485138E0,9.813614E-1,0E0,1.9625187E-1,1.9191396E-1,3.4000814E-2,1.3089924E0,5.696274E0,5.1721233E-1,2.621438E-1,3.324566E-1,1.8989396E0,0E0,4.538555E-1,4.8403244E0,3.925331E0,0E0,0E0,3.3697796E-1,2.997589E-1,1.1148286E-1,6.202975E-2,7.750043E-2,0E0,3.3152294E-1,5.895901E-1,8.201599E-1,3.3103924E0,2.3168175E0,1.506505E-1,0E0,0E0,8.4550476E-1,0E0,2.484802E0,7.1205044E-1,6.466198E-1,0E0,1.0135117E0,0E0,0E0,1.8034363E0,0E0,0E0,0E0,0E0,0E0,0E0,0E0,0E0,0E0,0E0,0E0,0E0,0E0,0E0,0E0,0E0,0E0,0E0,0E0,0E0,0E0,0E0,0E0,0E0,0E0,0E0,0E0,0E0,0E0,0E0,0E0,0E0,0E0,0E0],"parents":[2147483647,0,0,1,1,2,2,3,3,4,4,5,5,6,6,7,7,8,8,9,9,10,10,11,11,12,12,13,13,14,14,16,16,17,17,18,18,19,19,20,20,21,21,22,22,23,23,24,24,26,26,27,27,28,28,31,31,32,32,33,33,34,34,35,35,37,37,38,38,39,39,40,40,41,41,42,42,45,45,47,47,48,48,49,49,51,51,54,54],"right_children":[2,4,6,8,10,12,14,16,18,20,22,24,26,28,30,-1,32,34,36,38,40,42,44,46,48,-1,50,52,54,-1,-1,56,58,60,62,64,-1,66,68,70,72,74,76,-1,-1,78,-1,80,82,84,-1,86,-1,-1,88,-1,-1,-1,-1,-1,-1,-1,-1,-1,-1,-1,-1,-1,-1,-1,-1,-1,-1,-1,-1,-1,-1,-1,-1,-1,-1,-1,-1,-1,-1,-1,-1,-1,-1],"split_conditions":[8.394221E-1,-1.0432099E0,1.1387123E0,-1.3521546E0,6.077136E-1,1.0421671E0,1.5731659E0,-2.0279713E0,-1.1494097E0,-5.701383E-1,8.1045854E-1,9.263128E-1,1.0518216E0,1.3221483E0,1.814529E0,2.951604E-2,-1.4583545E0,-1.1880277E0,-1.062519E0,-8.115014E-1,4.0496856E-1,7.81495E-1,8.297676E-1,8.9734924E-1,9.745854E-1,6.4007826E-2,1.1097487E0,1.3124938E0,1.3414574E0,7.562027E-2,5.0865408E-2,-1.5259361E0,-1.4390454E0,-1.303882E0,-1.1687187E0,-1.101137E0,1.7084565E-3,-9.2735565E-1,-6.0875636E-1,1.6360548E-1,5.9805906E-1,7.6218593E-1,8.00804E-1,1.6782902E-2,2.6114974E-3,8.683857E-1,3.653715E-2,9.649309E-1,9.8423994E-1,1.0711306E0,2.5825445E-2,1.1483668E0,3.0345304E-3,8.31914E-2,1.3800755E0,1.256081E-2,6.5778666E-3,2.5195664E-2,1.3355029E-2,5.971843E-3,1.2093049E-3,1.2449198E-2,5.372361E-3,3.4416918E-4,-4.572175E-3,-1.1246999E-2,-1.7444981E-2,-2.4505734E-2,-1.3253833E-2,-3.3535074E-2,-2.8376192E-2,-1.6791223E-2,-5.605315E-2,-4.307256E-3,2.419225E-2,-8.888482E-3,-2.1084316E-2,3.4754187E-2,1.9258954E-2,1.2436406E-2,-2.6335372E-2,3.812087E-2,1.9584848E-2,2.8351367E-2,4.3176156E-2,6.8668924E-2,4.6106946E-2,3.7281077E-2,5.6E-2],"split_indices":[0,0,0,0,0,0,0,0,0,0,0,0,0,0,0,0,0,0,0,0,0,0,0,0,0,0,0,0,0,0,0,0,0,0,0,0,0,0,0,0,0,0,0,0,0,0,0,0,0,0,0,0,0,0,0,0,0,0,0,0,0,0,0,0,0,0,0,0,0,0,0,0,0,0,0,0,0,0,0,0,0,0,0,0,0,0,0,0,0],"split_type":[0,0,0,0,0,0,0,0,0,0,0,0,0,0,0,0,0,0,0,0,0,0,0,0,0,0,0,0,0,0,0,0,0,0,0,0,0,0,0,0,0,0,0,0,0,0,0,0,0,0,0,0,0,0,0,0,0,0,0,0,0,0,0,0,0,0,0,0,0,0,0,0,0,0,0,0,0,0,0,0,0,0,0,0,0,0,0,0,0],"sum_hessian":[6.425E3,4.744E3,1.681E3,1.242E3,3.502E3,7.23E2,9.58E2,7.78E2,4.64E2,3E3,5.02E2,4.92E2,2.31E2,8.03E2,1.55E2,2.7E1,7.51E2,3.01E2,1.63E2,7.89E2,2.211E3,4.43E2,5.9E1,2.03E2,2.89E2,2.1E1,2.1E2,4.36E2,3.67E2,1.26E2,2.9E1,5.7E2,1.81E2,2.47E2,5.4E1,1.29E2,3.4E1,3.7E2,4.19E2,1.803E3,4.08E2,3.87E2,5.6E1,3.9E1,2E1,1.53E2,5E1,1.14E2,1.75E2,1.42E2,6.8E1,4.1E2,2.6E1,4.8E1,3.19E2,4.46E2,1.24E2,2.6E1,1.55E2,6.7E1,1.8E2,2.7E1,2.7E1,7.3E1,5.6E1,1.65E2,2.05E2,3.61E2,5.8E1,1.335E3,4.68E2,3.86E2,2.2E1,3.57E2,3E1,4.2E1,1.4E1,6.6E1,8.7E1,9.5E1,1.9E1,2.5E1,1.5E2,6.3E1,7.9E1,2.5E1,3.85E2,7.7E1,2.42E2],"tree_param":{"num_deleted":"0","num_feature":"2","num_nodes":"89","size_leaf_vector":"1"}},{"base_weights":[-3.7009444E-3,3.2932752E-1,-4.7241114E-2,2.7429458E-1,4.421372E-1,-5.558382E-2,1.0413E-1,2.9945222E-1,6.09658E-2,5.1405525E-1,2.8815275E-1,-2.923645E-2,-1.2765177E-1,8.73468E-2,2.3524012E-1,2.7485773E-1,3.4878108E-1,4.98602E-3,7.277029E-3,4.5788255E-1,6.078526E-2,1.9606343E-2,3.202563E-2,-1.6643647E-2,-6.007918E-2,-1.4314067E-1,-5.1020496E-2,4.6390886E-3,1.0049124E-1,2.3982255E-2,4.4301036E-3,3.1147787E-1,1.5521231E-1,3.2243776E-1,3.952991E-2,5.234921E-1,2.3587285E-2,-3.7325177E-2,7.0272885E-2,-7.018305E-2,5.0426286E-2,-1.2382348E-1,-2.2669747E-1,5.8597837E-2,-9.222619E-2,1.2638164E-1,5.0973486E-2,2.766718E-2,5.192822E-2,5.097542E-4,2.0424811E-2,3.877192E-2,2.4635877E-2,4.5275956E-2,6.347104E-2,-2.5731453E-3,-7.646877E-3,1.1237158E-2,-7.2040566E-4,-9.690403E-3,-6.0642892E-3,6.8136603E-3,-2.0279745E-3,-1.3288276E-2,9.057975E-3,-2.8437799E-2,-1.9673042E-2,-2.3115242E-3,1.8051038E-2,-1.4663099E-2,-3.6785153E-3,8.682871E-3,1.5163708E-2,6.2437695E-3,2.125044E-3],"categories":[],"categories_nodes":[],"categories_segments":[],"categories_sizes":[],"default_left":[0,0,0,0,0,0,0,0,0,0,0,0,0,0,0,0,0,0,0,0,0,0,0,0,0,0,0,0,0,0,0,0,0,0,0,0,0,0,0,0,0,0,0,0,0,0,0,0,0,0,0,0,0,0,0,0,0,0,0,0,0,0,0,0,0,0,0,0,0,0,0,0,0,0,0],"id":9,"left_children":[1,3,5,7,9,11,13,15,17,19,21,23,25,27,29,31,33,-1,-1,35,-1,-1,-1,37,39,41,43,-1,45,-1,-1,47,49,51,-1,53,-1,55,57,59,61,63,65,67,69,71,73,-1,-1,-1,-1,-1,-1,-1,-1,-1,-1,-1,-1,-1,-1,-1,-1,-1,-1,-1,-1,-1,-1,-1,-1,-1,-1,-1,-1],"loss_changes":[9.28018E1,4.4728317E0,7.153487E0,2.6651688E0,2.520771E0,1.0183332E1,6.3078475E-1,4.4644165E-1,3.4508407E-3,5.804901E-1,1.7076397E-1,1.5253978E0,1.697134E0,1.3746047E-1,1.8249512E-2,1.2792282E0,5.0230026E-2,0E0,0E0,1.4205132E0,0E0,0E0,0E0,5.02143E0,1.2752709E0,1.8991432E0,1.1030109E0,0E0,2.4868274E-1,0E0,0E0,1.5271187E0,5.363116E-1,3.9120293E-1,0E0,3.4983635E-1,0E0,1.0218506E0,1.7523305E0,2.60262E-1,1.2159547E-1,1.8999901E0,3.295126E-1,6.7161644E-1,5.2848387E-1,1.1669397E-1,2.2525758E-2,0E0,0E0,0E0,0E0,0E0,0E0,0E0,0E0,0E0,0E0,0E0,0E0,0E0,0E0,0E0,0E0,0E0,0E0,0E0,0E0,0E0,0E0,0E0,0E0,0E0,0E0,0E0,0E0],"parents":[2147483647,0,0,1,1,2,2,3,3,4,4,5,5,6,6,7,7,8,8,9,9,10,10,11,11,12,12,13,13,14,14,15,15,16,16,19,19,23,23,24,24,25,25,26,26,28,28,31,31,32,32,33,33,35,35,37,37,38,38,39,39,40,40,41,41,42,42,43,43,44,44,45,45,46,46],"right_children":[2,4,6,8,10,12,14,16,18,20,22,24,26,28,30,32,34,-1,-1,36,-1,-1,-1,38,40,42,44,-1,46,-1,-1,48,50,52,-1,54,-1,56,58,60,62,64,66,68,70,72,74,-1,-1,-1,-1,-1,-1,-1,-1,-1,-1,-1,-1,-1,-1,-1,-1,-1,-1,-1,-1,-1,-1,-1,-1,-1,-1,-1,-1],"split_conditions":[-1.1974809E0,-1.5017393E0,1.540844E0,-1.5856726E0,-1.2919059E0,7.644606E-1,1.8975606E0,-1.7745225E0,-1.5332142E0,-1.3548559E0,-1.2604309E0,1.8741901E-1,1.3519939E0,1.6352689E0,1.9500189E0,-1.8794392E0,-1.6486225E0,4.98602E-3,7.277029E-3,-1.386331E0,6.078526E-2,1.9606343E-2,3.202563E-2,-7.487264E-2,7.1200234E-1,1.2470773E0,1.383469E0,4.6390886E-3,1.8031356E0,2.3982255E-2,4.4301036E-3,-1.9423892E0,-1.8479642E0,-1.7010809E0,3.952991E-2,-1.4178059E0,2.3587285E-2,-3.2667264E-1,9.299401E-2,3.13319E-1,7.5396895E-1,1.226094E0,1.2785523E0,1.3729773E0,1.4254357E0,1.7087106E0,1.8765773E0,2.766718E-2,5.192822E-2,5.097542E-4,2.0424811E-2,3.877192E-2,2.4635877E-2,4.5275956E-2,6.347104E-2,-2.5731453E-3,-7.646877E-3,1.1237158E-2,-7.2040566E-4,-9.690403E-3,-6.0642892E-3,6.8136603E-3,-2.0279745E-3,-1.3288276E-2,9.057975E-3,-2.8437799E-2,-1.9673042E-2,-2.3115242E-3,1.8051038E-2,-1.4663099E-2,-3.6785153E-3,8.682871E-3,1.5163708E-2,6.2437695E-3,2.125044E-3],"split_indices":[1,1,1,1,1,1,1,1,1,1,1,1,1,1,1,1,1,0,0,1,0,0,0,1,1,1,1,0,1,0,0,1,1,1,0,1,0,1,1,1,1,1,1,1,1,1,1,0,0,0,0,0,0,0,0,0,0,0,0,0,0,0,0,0,0,0,0,0,0,0,0,0,0,0,0],"split_type":[0,0,0,0,0,0,0,0,0,0,0,0,0,0,0,0,0,0,0,0,0,0,0,0,0,0,0,0,0,0,0,0,0,0,0,0,0,0,0,0,0,0,0,0,0,0,0,0,0,0,0,0,0,0,0,0,0,0,0,0,0,0,0,0,0,0,0,0,0,0,0,0,0,0,0],"sum_hessian":[6.398E3,7.39E2,5.659E3,4.99E2,2.4E2,5.364E3,2.95E2,4.46E2,5.3E1,1.62E2,7.8E1,3.929E3,1.435E3,2.63E2,3.2E1,3.02E2,1.44E2,3E1,2.3E1,1.05E2,5.7E1,2.2E1,5.6E1,2.791E3,1.138E3,1.193E3,2.42E2,6.5E1,1.98E2,3.1E1,1E0,2.3E2,7.2E1,9.7E1,4.7E1,8E1,2.5E1,2.255E3,5.36E2,1.043E3,9.5E1,9.71E2,2.22E2,6.6E1,1.76E2,1.29E2,6.9E1,1.99E2,3.1E1,1.8E1,5.4E1,5E1,4.7E1,5.2E1,2.8E1,1.741E3,5.14E2,3.47E2,1.89E2,2.72E2,7.71E2,7.6E1,1.9E1,9.32E2,3.9E1,7.3E1,1.49E2,4E1,2.6E1,8.8E1,8.8E1,5.2E1,7.7E1,4.9E1,2E1],"tree_param":{"num_deleted":"0","num_feature":"2","num_nodes":"75","size_leaf_vector":"1"}},{"base_weights":[1.8945845E-3,-1.2962982E-1,3.6292717E-1,8.8944376E-2,-2.0888177E-1,2.7202123E-1,5.689119E-1,1.1984049E-1,2.760567E-2,-2.53301E-1,-5.740459E-2,1.6928001E-1,3.4784248E-1,7.9424076E-2,5.431962E-1,2.7648067E-2,1.1439727E-1,5.2548334E-2,1.988071E-2,-1.7035344E-1,-2.9034576E-1,-1.160486E-1,5.4472573E-3,1.7996885E-1,-3.374093E-3,3.558515E-1,1.415564E-2,4.9972972E-1,6.492489E-2,1.2359434E-1,8.276346E-2,1.0765405E-2,1.21142745E-1,-1.42076975E-2,3.6832012E-2,-1.4269516E-1,-2.0453429E-1,-3.0793732E-1,-2.4740046E-1,-5.65426E-2,-2.622742E-1,3.434325E-2,-9.547787E-3,1.6420074E-1,2.2180194E-2,3.4199792E-1,4.2804286E-1,4.0346536E-1,5.243621E-2,8.885565E-3,1.37588335E-2,2.5767658E-3,9.752259E-3,4.7335043E-3,-6.494087E-4,1.7343245E-2,5.631292E-3,-9.944149E-4,-3.6194474E-3,5.96594E-3,3.4693957E-4,-1.543196E-2,-2.4437073E-3,-2.3168633E-2,-1.5266267E-2,-2.5999904E-2,-3.4542326E-2,-2.385771E-2,-3.6332E-2,-1.04092825E-2,2.091633E-3,-6.25011E-2,-1.8019352E-2,-2.3129128E-2,9.0700743E-4,1.8688718E-2,-1.8355949E-2,3.5983674E-2,1.1681608E-2,6.835077E-2,3.4395058E-2,4.9956743E-2,3.6537066E-2],"categories":[],"categories_nodes":[],"categories_segments":[],"categories_sizes":[],"default_left":[0,0,0,0,0,0,0,0,0,0,0,0,0,0,0,0,0,0,0,0,0,0,0,0,0,0,0,0,0,0,0,0,0,0,0,0,0,0,0,0,0,0,0,0,0,0,0,0,0,0,0,0,0,0,0,0,0,0,0,0,0,0,0,0,0,0,0,0,0,0,0,0,0,0,0,0,0,0,0,0,0,0,0],"id":10,"left_children":[1,3,5,7,9,11,13,15,17,19,21,23,25,-1,27,-1,29,31,33,35,37,39,41,43,-1,45,-1,47,-1,49,51,53,55,57,59,61,63,65,67,69,71,-1,73,75,-1,77,79,81,-1,-1,-1,-1,-1,-1,-1,-1,-1,-1,-1,-1,-1,-1,-1,-1,-1,-1,-1,-1,-1,-1,-1,-1,-1,-1,-1,-1,-1,-1,-1,-1,-1,-1,-1],"loss_changes":[3.019541E2,8.075843E1,3.1640701E1,2.348545E0,2.3003647E1,9.133278E0,2.5759125E0,6.7178726E-1,7.9303294E-2,8.078018E0,2.8645642E0,1.0976114E0,1.0697861E0,0E0,1.8375092E0,0E0,2.2222996E-1,2.7957118E-1,1.8543305E-1,7.4508286E-1,1.3040924E0,3.4830933E0,1.908886E0,2.7888393E-1,0E0,5.0566864E-1,0E0,5.875397E-1,0E0,2.8771877E-1,1.514281E-1,3.944015E-2,1.15661025E-1,9.670438E-3,1.6277143E-1,6.23085E-1,4.7729588E-1,2.231926E0,4.6154404E-1,1.0592527E0,3.3411245E0,0E0,1.4924465E0,2.8034983E0,0E0,2.1753464E0,1.9346504E0,8.4724426E-2,0E0,0E0,0E0,0E0,0E0,0E0,0E0,0E0,0E0,0E0,0E0,0E0,0E0,0E0,0E0,0E0,0E0,0E0,0E0,0E0,0E0,0E0,0E0,0E0,0E0,0E0,0E0,0E0,0E0,0E0,0E0,0E0,0E0,0E0,0E0],"parents":[2147483647,0,0,1,1,2,2,3,3,4,4,5,5,6,6,7,7,8,8,9,9,10,10,11,11,12,12,14,14,16,16,17,17,18,18,19,19,20,20,21,21,22,22,23,23,25,25,27,27,29,29,30,30,31,31,32,32,33,33,34,34,35,35,36,36,37,37,38,38,39,39,40,40,42,42,43,43,45,45,46,46,47,47],"right_children":[2,4,6,8,10,12,14,16,18,20,22,24,26,-1,28,-1,30,32,34,36,38,40,42,44,-1,46,-1,48,-1,50,52,54,56,58,60,62,64,66,68,70,72,-1,74,76,-1,78,80,82,-1,-1,-1,-1,-1,-1,-1,-1,-1,-1,-1,-1,-1,-1,-1,-1,-1,-1,-1,-1,-1,-1,-1,-1,-1,-1,-1,-1,-1,-1,-1,-1,-1,-1,-1],"split_conditions":[8.297676E-1,-1.0432099E0,1.3221483E0,-1.3135365E0,4.4358665E-1,1.0325125E0,1.3414574E0,-2.0279713E0,-1.2556094E0,-5.411747E-1,6.559862E-1,1.022858E0,1.3124938E0,7.9424076E-2,1.6021295E0,2.7648067E-2,-1.4390454E0,-1.284573E0,-1.1880277E0,-7.632288E-1,1.6360548E-1,5.9805906E-1,6.656407E-1,9.745854E-1,-3.374093E-3,1.2642212E0,1.415564E-2,1.3800755E0,6.492489E-2,-1.7479901E0,-1.4197364E0,-1.303882E0,-1.2652639E0,-1.1976823E0,-1.101137E0,-7.825378E-1,-6.280654E-1,-2.032664E-1,4.242776E-1,5.4013187E-1,6.077136E-1,3.434325E-2,6.7529523E-1,9.649309E-1,2.2180194E-2,1.2449121E0,1.2738757E0,1.3511119E0,5.243621E-2,8.885565E-3,1.37588335E-2,2.5767658E-3,9.752259E-3,4.7335043E-3,-6.494087E-4,1.7343245E-2,5.631292E-3,-9.944149E-4,-3.6194474E-3,5.96594E-3,3.4693957E-4,-1.543196E-2,-2.4437073E-3,-2.3168633E-2,-1.5266267E-2,-2.5999904E-2,-3.4542326E-2,-2.385771E-2,-3.6332E-2,-1.04092825E-2,2.091633E-3,-6.25011E-2,-1.8019352E-2,-2.3129128E-2,9.0700743E-4,1.8688718E-2,-1.8355949E-2,3.5983674E-2,1.1681608E-2,6.835077E-2,3.4395058E-2,4.9956743E-2,3.6537066E-2],"split_indices":[0,0,0,0,0,0,0,0,0,0,0,0,0,0,0,0,0,0,0,0,0,0,0,0,0,0,0,0,0,0,0,0,0,0,0,0,0,0,0,0,0,0,0,0,0,0,0,0,0,0,0,0,0,0,0,0,0,0,0,0,0,0,0,0,0,0,0,0,0,0,0,0,0,0,0,0,0,0,0,0,0,0,0],"split_type":[0,0,0,0,0,0,0,0,0,0,0,0,0,0,0,0,0,0,0,0,0,0,0,0,0,0,0,0,0,0,0,0,0,0,0,0,0,0,0,0,0,0,0,0,0,0,0,0,0,0,0,0,0,0,0,0,0,0,0,0,0,0,0,0,0,0,0,0,0,0,0,0,0,0,0,0,0,0,0,0,0,0,0],"sum_hessian":[6.357E3,4.66E3,1.697E3,1.24E3,3.42E3,1.179E3,5.18E2,8.24E2,4.16E2,2.644E3,7.76E2,5.02E2,6.77E2,5E1,4.68E2,2.6E1,7.98E2,9.7E1,3.19E2,8.18E2,1.826E3,4.01E2,3.75E2,4.77E2,2.5E1,6.51E2,2.6E1,3.36E2,1.32E2,6.16E2,1.82E2,6.1E1,3.6E1,1.06E2,2.13E2,4.55E2,3.63E2,1.291E3,5.35E2,2.86E2,1.15E2,1.5E1,3.6E2,3.5E2,1.27E2,5.51E2,1E2,7.2E1,2.64E2,1.79E2,4.37E2,3.8E1,1.44E2,1.9E1,4.2E1,1.9E1,1.7E1,9E1,1.6E1,1.26E2,8.7E1,4.14E2,4.1E1,2.36E2,1.27E2,5.7E2,7.21E2,5E2,3.5E1,1.77E2,1.09E2,2E1,9.5E1,2.7E1,3.33E2,3.29E2,2.1E1,5.1E2,4.1E1,2.3E1,7.7E1,1.7E1,5.5E1],"tree_param":{"num_deleted":"0","num_feature":"2","num_nodes":"83","size_leaf_vector":"1"}},{"base_weights":[-9.298026E-3,2.3980923E-1,-4.1035406E-2,3.336454E-1,2.1432082E-1,-4.6719067E-2,7.374941E-2,2.3636347E-1,4.3845358E-1,-2.9127426E-2,2.362963E-1,-2.9433602E-2,-9.369658E-2,6.4568646E-2,1.2576595E-2,3.0556512E-1,1.0174103E-2,6.514237E-2,3.3798702E-2,-9.366854E-3,5.8314414E-3,5.3459477E-2,2.1507248E-1,3.034329E-2,-3.3947192E-2,-1.09190464E-1,-2.1126643E-2,7.9621464E-2,3.9545137E-2,2.3317168E-2,3.4237415E-2,4.2302407E-2,2.4335542E-1,-9.885227E-3,2.7609387E-2,-1.0463407E-1,-2.4261637E-2,-1.6889587E-1,-1.0128465E-1,8.677894E-2,-5.532674E-2,3.302547E-2,9.757063E-2,1.2652511E-3,4.7268666E-2,-4.5436528E-4,9.80741E-3,2.3002079E-2,4.2182535E-2,-6.150553E-3,3.3141475E-3,-5.3230156E-3,-1.2912243E-2,1.1879393E-2,-2.9499356E-3,-6.800476E-3,-2.1384655E-2,-8.911925E-3,-1.4531988E-2,7.2543696E-4,2.0418512E-2,-1.7900107E-2,-2.2255944E-3,2.1195442E-3,5.2117826E-3,1.41389435E-2,7.907988E-3,5.9673744E-3,1.45128E-3],"categories":[],"categories_nodes":[],"categories_segments":[],"categories_sizes":[],"default_left":[0,0,0,0,0,0,0,0,0,0,0,0,0,0,0,0,0,0,0,0,0,0,0,0,0,0,0,0,0,0,0,0,0,0,0,0,0,0,0,0,0,0,0,0,0,0,0,0,0,0,0,0,0,0,0,0,0,0,0,0,0,0,0,0,0,0,0,0,0],"id":11,"left_children":[1,3,5,7,9,11,13,15,17,19,21,23,25,27,-1,29,-1,-1,-1,-1,-1,-1,31,33,35,37,39,41,43,-1,-1,45,47,49,-1,51,53,55,57,59,61,63,65,-1,67,-1,-1,-1,-1,-1,-1,-1,-1,-1,-1,-1,-1,-1,-1,-1,-1,-1,-1,-1,-1,-1,-1,-1,-1],"loss_changes":[5.037113E1,1.6505432E0,3.6901455E0,1.446146E0,3.05097E0,4.370014E0,1.1938572E-1,7.2351503E-1,1.3203659E0,2.7635473E-1,3.1898212E0,1.0635359E0,1.6258097E0,8.3109856E-2,0E0,6.1398983E-2,0E0,0E0,0E0,0E0,0E0,0E0,2.379177E0,2.7412016E0,2.5046186E0,5.460129E-1,9.495388E-1,1.1554068E-1,1.7680064E-2,0E0,0E0,1.8333346E-1,9.0250206E-1,5.328697E-1,0E0,5.482564E-1,2.4177012E0,6.113045E-1,5.5275536E-1,5.773926E-1,7.935679E-1,8.15573E-3,7.1463645E-2,0E0,2.6765004E-2,0E0,0E0,0E0,0E0,0E0,0E0,0E0,0E0,0E0,0E0,0E0,0E0,0E0,0E0,0E0,0E0,0E0,0E0,0E0,0E0,0E0,0E0,0E0,0E0],"parents":[2147483647,0,0,1,1,2,2,3,3,4,4,5,5,6,6,7,7,8,8,9,9,10,10,11,11,12,12,13,13,15,15,22,22,23,23,24,24,25,25,26,26,27,27,28,28,31,31,32,32,33,33,35,35,36,36,37,37,38,38,39,39,40,40,41,41,42,42,44,44],"right_children":[2,4,6,8,10,12,14,16,18,20,22,24,26,28,-1,30,-1,-1,-1,-1,-1,-1,32,34,36,38,40,42,44,-1,-1,46,48,50,-1,52,54,56,58,60,62,64,66,-1,68,-1,-1,-1,-1,-1,-1,-1,-1,-1,-1,-1,-1,-1,-1,-1,-1,-1,-1,-1,-1,-1,-1,-1,-1],"split_conditions":[-1.1974809E0,-2.0263226E0,1.5723189E0,-2.1312392E0,-1.9423892E0,7.644606E-1,1.8975606E0,-2.1732059E0,-2.099764E0,-1.9843559E0,-1.8794392E0,-1.0610893E0,1.3519939E0,1.7716606E0,1.2576595E-2,-2.2151725E0,1.0174103E-2,6.514237E-2,3.3798702E-2,-9.366854E-3,5.8314414E-3,5.3459477E-2,-1.7745225E0,-1.0820726E0,-8.5125595E-1,8.2741064E-1,1.383469E0,1.6352689E0,1.8031356E0,2.3317168E-2,3.4237415E-2,-1.8059976E0,-1.2289559E0,-1.1450226E0,2.7609387E-2,-9.9813926E-1,-7.987976E-1,7.8544396E-1,1.2470773E0,1.3729773E0,1.4044523E0,1.6142856E0,1.666744E0,1.2652511E-3,1.8765773E0,-4.5436528E-4,9.80741E-3,2.3002079E-2,4.2182535E-2,-6.150553E-3,3.3141475E-3,-5.3230156E-3,-1.2912243E-2,1.1879393E-2,-2.9499356E-3,-6.800476E-3,-2.1384655E-2,-8.911925E-3,-1.4531988E-2,7.2543696E-4,2.0418512E-2,-1.7900107E-2,-2.2255944E-3,2.1195442E-3,5.2117826E-3,1.41389435E-2,7.907988E-3,5.9673744E-3,1.45128E-3],"split_indices":[1,1,1,1,1,1,1,1,1,1,1,1,1,1,0,1,0,0,0,0,0,0,1,1,1,1,1,1,1,0,0,1,1,1,0,1,1,1,1,1,1,1,1,0,1,0,0,0,0,0,0,0,0,0,0,0,0,0,0,0,0,0,0,0,0,0,0,0,0],"split_type":[0,0,0,0,0,0,0,0,0,0,0,0,0,0,0,0,0,0,0,0,0,0,0,0,0,0,0,0,0,0,0,0,0,0,0,0,0,0,0,0,0,0,0,0,0,0,0,0,0,0,0,0,0,0,0,0,0,0,0,0,0,0,0,0,0,0,0,0,0],"sum_hessian":[6.369E3,7.19E2,5.65E3,1.51E2,5.68E2,5.384E3,2.66E2,8E1,7.1E1,4.7E1,5.21E2,3.937E3,1.447E3,2.28E2,3.8E1,5.2E1,2.8E1,2.1E1,5E1,2.7E1,2E1,3.3E1,4.88E2,2.76E2,3.661E3,1.192E3,2.55E2,1.41E2,8.7E1,2E1,3.2E1,6.9E1,4.19E2,2.38E2,3.8E1,4.4E2,3.221E3,1.37E2,1.055E3,6.1E1,1.94E2,4E1,1.01E2,2E1,6.7E1,3.8E1,3.1E1,3.92E2,2.7E1,1.08E2,1.3E2,1.43E2,2.97E2,1.13E2,3.108E3,4.3E1,9.4E1,8.29E2,2.26E2,3.7E1,2.4E1,4E1,1.54E2,2.6E1,1.4E1,2.8E1,7.3E1,4.8E1,1.9E1],"tree_param":{"num_deleted":"0","num_feature":"2","num_nodes":"69","size_leaf_vector":"1"}},{"base_weights":[-3.5649014E-3,2.651083E-1,-3.630985E-2,4.2074364E-1,2.3174153E-1,-4.3617114E-2,7.4389435E-2,3.694437E-2,6.371322E-2,1.1049123E-1,2.7840212E-1,-2.7096603E-2,-8.62156E-2,6.060961E-2,1.9118336E-1,1.7985001E-2,1.4814173E-1,3.1046024E-1,1.2352001E-1,-1.04313165E-1,-2.5294662E-2,-9.355468E-2,-3.628912E-2,2.363286E-2,8.0228776E-2,1.9475207E-2,3.1354905E-3,1.5124785E-2,-8.260446E-3,1.8122983E-1,4.376912E-3,2.7656204E-1,3.6620313E-1,4.044437E-2,2.3476943E-2,-1.510115E-2,-1.6578493E-1,6.608053E-2,-3.0409306E-2,-8.659712E-2,-1.2595911E-1,1.5692108E-3,-1.1691603E-1,1.3828697E-2,-1.2638E-2,1.1983793E-1,3.185328E-2,1.5127751E-2,3.0468835E-2,2.952154E-2,1.4982711E-2,5.0213397E-2,2.6206166E-2,5.0155595E-3,2.8894767E-3,1.5667288E-3,-7.31096E-3,-1.2667681E-2,-2.174837E-2,2.737047E-3,2.4274135E-2,-1.7563058E-2,-2.65779E-3,-9.425351E-3,1.6709492E-2,-2.5639256E-2,-1.003011E-2,-3.6720992E-3,1.5325374E-2,-2.1935618E-2,-4.644445E-3,-9.61149E-3,1.7558979E-3,1.586163E-2,1.0410022E-2,-1.223083E-3,4.610558E-3],"categories":[],"categories_nodes":[],"categories_segments":[],"categories_sizes":[],"default_left":[0,0,0,0,0,0,0,0,0,0,0,0,0,0,0,0,0,0,0,0,0,0,0,0,0,0,0,0,0,0,0,0,0,0,0,0,0,0,0,0,0,0,0,0,0,0,0,0,0,0,0,0,0,0,0,0,0,0,0,0,0,0,0,0,0,0,0,0,0,0,0,0,0,0,0,0,0],"id":12,"left_children":[1,3,5,7,9,11,13,-1,-1,15,17,19,21,23,25,27,29,31,33,35,37,39,41,43,45,-1,-1,-1,-1,47,-1,49,51,53,-1,55,57,59,61,63,65,67,69,-1,71,73,75,-1,-1,-1,-1,-1,-1,-1,-1,-1,-1,-1,-1,-1,-1,-1,-1,-1,-1,-1,-1,-1,-1,-1,-1,-1,-1,-1,-1,-1,-1],"loss_changes":[5.6525986E1,3.5272446E0,4.6358666E0,1.1189041E0,3.2336807E0,3.7789068E0,5.5974936E-1,0E0,0E0,5.615665E-1,2.0271835E0,5.3624964E-1,5.4659367E-1,2.2952354E-1,1.49976015E-2,6.559259E-1,3.8921905E-1,5.487404E-1,6.651796E-1,4.8009014E-1,1.7714028E0,2.83988E-1,5.9234905E-1,4.6751124E-1,3.9473414E-1,0E0,0E0,0E0,0E0,2.756219E-1,0E0,4.7112846E-1,1.6662273E0,3.373675E-3,0E0,6.7184106E-2,7.75857E-2,1.3679049E0,1.9905891E0,2.1135025E0,7.406697E-1,7.780958E-1,4.3739754E-1,0E0,2.184722E-1,5.3060174E-2,6.02524E-2,0E0,0E0,0E0,0E0,0E0,0E0,0E0,0E0,0E0,0E0,0E0,0E0,0E0,0E0,0E0,0E0,0E0,0E0,0E0,0E0,0E0,0E0,0E0,0E0,0E0,0E0,0E0,0E0,0E0,0E0],"parents":[2147483647,0,0,1,1,2,2,3,3,4,4,5,5,6,6,9,9,10,10,11,11,12,12,13,13,14,14,15,15,16,16,17,17,18,18,19,19,20,20,21,21,22,22,23,23,24,24,29,29,31,31,32,32,33,33,35,35,36,36,37,37,38,38,39,39,40,40,41,41,42,42,44,44,45,45,46,46],"right_children":[2,4,6,8,10,12,14,-1,-1,16,18,20,22,24,26,28,30,32,34,36,38,40,42,44,46,-1,-1,-1,-1,48,-1,50,52,54,-1,56,58,60,62,64,66,68,70,-1,72,74,76,-1,-1,-1,-1,-1,-1,-1,-1,-1,-1,-1,-1,-1,-1,-1,-1,-1,-1,-1,-1,-1,-1,-1,-1,-1,-1,-1,-1,-1,-1],"split_conditions":[-1.1974809E0,-2.0682893E0,1.4674023E0,-2.099764E0,-1.7745225E0,6.91019E-1,1.8975606E0,3.694437E-2,6.371322E-2,-1.9843559E0,-1.2919059E0,-1.1555142E0,1.3519939E0,1.6352689E0,1.9500189E0,-2.0263226E0,-1.8059976E0,-1.4597726E0,-1.2289559E0,-1.1764976E0,-1.0610893E0,1.2470773E0,1.4149439E0,1.4988773E0,1.7716606E0,1.9475207E-2,3.1354905E-3,1.5124785E-2,-8.260446E-3,-1.8479642E0,4.376912E-3,-1.5017393E0,-1.386331E0,-1.2604309E0,2.3476943E-2,-1.1869893E0,-1.166006E0,-1.0820726E0,-1.0191226E0,1.226094E0,1.257569E0,1.4044523E0,1.4254357E0,1.3828697E-2,1.540844E0,1.666744E0,1.8031356E0,1.5127751E-2,3.0468835E-2,2.952154E-2,1.4982711E-2,5.0213397E-2,2.6206166E-2,5.0155595E-3,2.8894767E-3,1.5667288E-3,-7.31096E-3,-1.2667681E-2,-2.174837E-2,2.737047E-3,2.4274135E-2,-1.7563058E-2,-2.65779E-3,-9.425351E-3,1.6709492E-2,-2.5639256E-2,-1.003011E-2,-3.6720992E-3,1.5325374E-2,-2.1935618E-2,-4.644445E-3,-9.61149E-3,1.7558979E-3,1.586163E-2,1.0410022E-2,-1.223083E-3,4.610558E-3],"split_indices":[1,1,1,1,1,1,1,0,0,1,1,1,1,1,1,1,1,1,1,1,1,1,1,1,1,0,0,0,0,1,0,1,1,1,0,1,1,1,1,1,1,1,1,0,1,1,1,0,0,0,0,0,0,0,0,0,0,0,0,0,0,0,0,0,0,0,0,0,0,0,0,0,0,0,0,0,0],"split_type":[0,0,0,0,0,0,0,0,0,0,0,0,0,0,0,0,0,0,0,0,0,0,0,0,0,0,0,0,0,0,0,0,0,0,0,0,0,0,0,0,0,0,0,0,0,0,0,0,0,0,0,0,0,0,0,0,0,0,0,0,0,0,0,0,0,0,0,0,0,0,0,0,0,0,0,0,0],"sum_hessian":[6.423E3,6.97E2,5.726E3,1.21E2,5.76E2,5.372E3,3.54E2,1E2,2.1E1,1.61E2,4.15E2,3.872E3,1.5E3,3.18E2,3.6E1,4.7E1,1.14E2,3.43E2,7.2E1,8.7E1,3.785E3,1.307E3,1.93E2,1.11E2,2.07E2,3.5E1,1E0,2E1,2.7E1,8.6E1,2.8E1,2.17E2,1.26E2,4.2E1,3E1,3.6E1,5.1E1,2E2,3.585E3,1.079E3,2.28E2,1.32E2,6.1E1,2.6E1,8.5E1,1.13E2,9.4E1,7.1E1,1.5E1,1.88E2,2.9E1,5.3E1,7.3E1,2.1E1,2.1E1,2.4E1,1.2E1,3.1E1,2E1,1.65E2,3.5E1,9.1E1,3.494E3,1.048E3,3.1E1,3.6E1,1.92E2,1.06E2,2.6E1,2.4E1,3.7E1,2.2E1,6.3E1,3E1,8.3E1,2.3E1,7.1E1],"tree_param":{"num_deleted":"0","num_feature":"2","num_nodes":"77","size_leaf_vector":"1"}},{"base_weights":[-3.208698E-3,-1.1084086E-1,2.9493427E-1,8.394684E-2,-1.8141018E-1,2.2122812E-1,4.1605556E-1,1.103571E-1,2.6300356E-2,-2.085733E-1,-4.8687607E-3,1.3794108E-1,2.5874087E-1,7.2523296E-2,4.0391502E-1,2.1715578E-1,1.0016186E-1,4.6657376E-2,-4.2218238E-2,-1.448275E-1,-2.3688616E-1,6.828156E-2,-5.7139665E-2,1.5465535E-1,-8.230624E-3,2.7675778E-1,-1.4787694E-2,2.5297895E-1,4.3419716E-1,2.8869668E-2,1.6991535E-1,8.1359625E-2,1.166047E-1,3.3792954E-2,1.8938718E-2,-6.387439E-2,-2.2203084E-4,-1.05619565E-1,-1.6844134E-1,-2.5917536E-1,-1.6217181E-1,2.3600167E-2,4.3311965E-2,-1.2992027E-1,6.498249E-3,2.911595E-2,1.4261761E-1,2.514918E-1,3.3182403E-1,-2.3889055E-2,2.005937E-2,3.406086E-1,-1.6034037E-3,7.1623164E-1,4.0566996E-1,1.1868208E-2,2.1025335E-2,1.0202323E-2,-4.4157077E-3,2.47072E-2,9.896377E-3,-1.5811687E-3,4.185243E-3,-4.214463E-3,-9.17411E-3,-1.219315E-2,-4.2053307E-3,-1.7480435E-2,-8.56524E-3,-2.0395964E-2,-2.659675E-2,-1.4180876E-2,-3.2665666E-2,9.441234E-3,-5.0822003E-3,-8.692085E-3,-1.7577099E-2,2.0129774E-3,-9.732322E-3,5.865391E-3,1.7072434E-2,2.5918502E-2,9.676566E-3,4.7099408E-2,2.8821943E-2,2.1650586E-2,6.049744E-2,5.327601E-2,9.092807E-2,2.7252434E-2,4.5417424E-2],"categories":[],"categories_nodes":[],"categories_segments":[],"categories_sizes":[],"default_left":[0,0,0,0,0,0,0,0,0,0,0,0,0,0,0,0,0,0,0,0,0,0,0,0,0,0,0,0,0,0,0,0,0,0,0,0,0,0,0,0,0,0,0,0,0,0,0,0,0,0,0,0,0,0,0,0,0,0,0,0,0,0,0,0,0,0,0,0,0,0,0,0,0,0,0,0,0,0,0,0,0,0,0,0,0,0,0,0,0,0,0],"id":13,"left_children":[1,3,5,7,9,11,13,15,17,19,21,23,25,-1,27,29,31,33,35,37,39,41,43,45,-1,47,49,51,53,-1,55,57,59,61,-1,63,-1,65,67,69,71,73,-1,75,77,-1,79,81,83,-1,-1,85,-1,87,89,-1,-1,-1,-1,-1,-1,-1,-1,-1,-1,-1,-1,-1,-1,-1,-1,-1,-1,-1,-1,-1,-1,-1,-1,-1,-1,-1,-1,-1,-1,-1,-1,-1,-1,-1,-1],"loss_changes":[2.0566394E2,6.474531E1,1.5084503E1,1.9047384E0,1.6576744E1,3.2729683E0,2.116867E0,9.1356087E-1,5.5292934E-1,5.37294E0,1.7704202E0,1.2312303E0,3.5967102E0,0E0,2.7239761E0,2.0103812E-1,2.3351479E-1,5.536217E-1,7.868251E-2,8.376961E-1,3.4101868E0,3.1359632E0,1.251378E0,4.645815E-1,0E0,8.681984E-1,2.2682288E0,2.5042539E0,3.8529587E0,0E0,7.217908E-2,9.641473E-1,9.353008E-1,1.13002E-1,0E0,3.1860292E-2,0E0,3.5778308E-1,2.8792953E-1,5.439377E-1,1.5580463E0,9.165075E-1,0E0,2.3313761E-1,2.0716959E-1,0E0,6.625705E-1,5.379486E-1,1.1507626E0,0E0,0E0,2.493702E0,0E0,1.1448479E0,2.91156E0,0E0,0E0,0E0,0E0,0E0,0E0,0E0,0E0,0E0,0E0,0E0,0E0,0E0,0E0,0E0,0E0,0E0,0E0,0E0,0E0,0E0,0E0,0E0,0E0,0E0,0E0,0E0,0E0,0E0,0E0,0E0,0E0,0E0,0E0,0E0,0E0],"parents":[2147483647,0,0,1,1,2,2,3,3,4,4,5,5,6,6,7,7,8,8,9,9,10,10,11,11,12,12,14,14,15,15,16,16,17,17,18,18,19,19,20,20,21,21,22,22,23,23,25,25,26,26,27,27,28,28,30,30,31,31,32,32,33,33,35,35,37,37,38,38,39,39,40,40,41,41,43,43,44,44,46,46,47,47,48,48,51,51,53,53,54,54],"right_children":[2,4,6,8,10,12,14,16,18,20,22,24,26,-1,28,30,32,34,36,38,40,42,44,46,-1,48,50,52,54,-1,56,58,60,62,-1,64,-1,66,68,70,72,74,-1,76,78,-1,80,82,84,-1,-1,86,-1,88,90,-1,-1,-1,-1,-1,-1,-1,-1,-1,-1,-1,-1,-1,-1,-1,-1,-1,-1,-1,-1,-1,-1,-1,-1,-1,-1,-1,-1,-1,-1,-1,-1,-1,-1,-1,-1],"split_conditions":[8.394221E-1,-1.0432099E0,1.2642212E0,-1.303882E0,6.173681E-1,9.745854E-1,1.2738757E0,-1.912117E0,-1.101137E0,-4.8324758E-1,7.139133E-1,9.649309E-1,1.2449121E0,7.2523296E-2,1.3221483E0,-2.0279713E0,-1.5548997E0,-1.1204461E0,-1.062519E0,-8.211559E-1,3.76005E-1,7.042588E-1,7.6218593E-1,8.490766E-1,-8.230624E-3,1.1580213E0,1.2545667E0,1.3124938E0,1.3414574E0,2.8869668E-2,-1.9700441E0,-1.5935178E0,-1.5259361E0,-1.284573E0,1.8938718E-2,-1.081828E0,-2.2203084E-4,-8.694285E-1,-5.025566E-1,-3.770478E-1,5.9805906E-1,6.656407E-1,4.3311965E-2,7.428769E-1,8.297676E-1,2.911595E-2,8.780402E-1,1.1483668E0,1.1773304E0,-2.3889055E-2,2.005937E-2,1.3028393E0,-1.6034037E-3,1.3318028E0,1.4186935E0,1.1868208E-2,2.1025335E-2,1.0202323E-2,-4.4157077E-3,2.47072E-2,9.896377E-3,-1.5811687E-3,4.185243E-3,-4.214463E-3,-9.17411E-3,-1.219315E-2,-4.2053307E-3,-1.7480435E-2,-8.56524E-3,-2.0395964E-2,-2.659675E-2,-1.4180876E-2,-3.2665666E-2,9.441234E-3,-5.0822003E-3,-8.692085E-3,-1.7577099E-2,2.0129774E-3,-9.732322E-3,5.865391E-3,1.7072434E-2,2.5918502E-2,9.676566E-3,4.7099408E-2,2.8821943E-2,2.1650586E-2,6.049744E-2,5.327601E-2,9.092807E-2,2.7252434E-2,4.5417424E-2],"split_indices":[0,0,0,0,0,0,0,0,0,0,0,0,0,0,0,0,0,0,0,0,0,0,0,0,0,0,0,0,0,0,0,0,0,0,0,0,0,0,0,0,0,0,0,0,0,0,0,0,0,0,0,0,0,0,0,0,0,0,0,0,0,0,0,0,0,0,0,0,0,0,0,0,0,0,0,0,0,0,0,0,0,0,0,0,0,0,0,0,0,0,0],"split_type":[0,0,0,0,0,0,0,0,0,0,0,0,0,0,0,0,0,0,0,0,0,0,0,0,0,0,0,0,0,0,0,0,0,0,0,0,0,0,0,0,0,0,0,0,0,0,0,0,0,0,0,0,0,0,0,0,0,0,0,0,0,0,0,0,0,0,0,0,0,0,0,0,0,0,0,0,0,0,0,0,0,0,0,0,0,0,0,0,0,0,0],"sum_hessian":[6.407E3,4.708E3,1.699E3,1.252E3,3.456E3,1.058E3,6.41E2,8.58E2,3.94E2,2.995E3,4.61E2,3.3E2,7.28E2,2.2E1,6.19E2,7.3E1,7.85E2,3.04E2,9E1,9.23E2,2.072E3,1.92E2,2.69E2,3.07E2,2.3E1,6.83E2,4.5E1,1.05E2,5.14E2,2.7E1,4.6E1,3.69E2,4.16E2,2.8E2,2.4E1,5.8E1,3.2E1,3.49E2,5.74E2,1.594E3,4.78E2,1.72E2,2E1,1.25E2,1.44E2,2.3E1,2.84E2,4.72E2,2.11E2,2.2E1,2.3E1,7.9E1,2.6E1,4.5E1,4.69E2,2.2E1,2.4E1,3.17E2,5.2E1,4.8E1,3.68E2,3.9E1,2.41E2,3.4E1,2.4E1,2.77E2,7.2E1,5.32E2,4.2E1,1.78E2,1.416E3,4.27E2,5.1E1,8.8E1,8.4E1,6.6E1,5.9E1,1.28E2,1.6E1,7.2E1,2.12E2,4.49E2,2.3E1,4.8E1,1.63E2,5.5E1,2.4E1,2.5E1,2E1,1.27E2,3.42E2],"tree_param":{"num_deleted":"0","num_feature":"2","num_nodes":"91","size_leaf_vector":"1"}},{"base_weights":[1.3383232E-3,2.0701662E-1,-2.4394127E-2,2.7621353E-1,1.9574514E-1,-1.0613656E-2,-5.781346E-2,2.0426215E-1,5.019567E-2,1.117054E-1,2.1092856E-1,-2.287473E-2,4.1365868E-4,-8.552573E-2,4.7183298E-2,2.6554817E-1,8.320425E-3,2.1182943E-2,6.8005376E-2,3.8224317E-2,1.9975106E-1,-1.228076E-2,-1.5558589E-1,1.6224997E-1,-8.108437E-3,-2.4790365E-2,-8.2718484E-2,1.445241E-2,9.022299E-2,7.1383268E-3,3.8224977E-2,-1.4019673E-3,1.1206362E-1,1.4054313E-1,2.2073095E-1,-2.062653E-2,3.349872E-2,-3.8731333E-2,-1.2721482E-1,3.8244629E-3,1.8524826E-1,-1.509454E-1,-4.5028105E-3,-7.861681E-2,-1.663812E-1,-2.5560183E-3,4.165491E-2,7.764556E-2,1.2687656E-2,9.488046E-3,1.2879855E-2,1.7594276E-2,-1.7039256E-2,3.776971E-2,1.7502427E-2,-5.020145E-4,-7.125621E-3,8.618478E-3,-6.4071417E-3,-5.7371533E-3,-1.8610442E-2,2.1853112E-2,9.491616E-3,-6.111357E-4,-2.9553501E-2,3.8176876E-2,-8.6328154E-4,-8.202243E-3,7.792588E-3,-2.419889E-2,-1.1624019E-2,-7.485288E-4,5.678855E-4,5.798529E-3,3.0580617E-3,8.896655E-3,6.616523E-3],"categories":[],"categories_nodes":[],"categories_segments":[],"categories_sizes":[],"default_left":[0,0,0,0,0,0,0,0,0,0,0,0,0,0,0,0,0,0,0,0,0,0,0,0,0,0,0,0,0,0,0,0,0,0,0,0,0,0,0,0,0,0,0,0,0,0,0,0,0,0,0,0,0,0,0,0,0,0,0,0,0,0,0,0,0,0,0,0,0,0,0,0,0,0,0,0,0],"id":14,"left_children":[1,3,5,7,9,11,13,15,-1,17,19,21,23,25,27,29,-1,-1,31,-1,33,35,37,39,41,-1,43,45,47,-1,-1,-1,49,51,53,55,57,-1,59,-1,61,63,65,67,69,71,73,75,-1,-1,-1,-1,-1,-1,-1,-1,-1,-1,-1,-1,-1,-1,-1,-1,-1,-1,-1,-1,-1,-1,-1,-1,-1,-1,-1,-1,-1],"loss_changes":[3.4126484E1,5.051594E-1,2.6387074E0,1.4892373E0,7.6756287E-1,5.488136E-1,4.8719616E0,5.4176116E-1,0E0,4.1001046E-1,9.270363E-1,2.7003021E0,2.950012E0,5.830183E-1,4.9175054E-1,1.1056817E0,0E0,0E0,2.5092876E-1,0E0,5.82613E-1,6.8114877E-1,8.842864E-1,2.9806972E-1,1.0458343E0,0E0,4.3405342E-1,9.2640825E-2,5.976081E-2,0E0,0E0,0E0,7.196665E-4,1.4829047E0,2.5382023E0,1.1903927E0,1.4191829E0,0E0,5.1579213E-1,0E0,2.4984384E-1,1.0452685E0,3.1667829E0,6.695981E-1,1.993339E-1,5.0759045E-3,1.2152031E-2,9.059846E-3,0E0,0E0,0E0,0E0,0E0,0E0,0E0,0E0,0E0,0E0,0E0,0E0,0E0,0E0,0E0,0E0,0E0,0E0,0E0,0E0,0E0,0E0,0E0,0E0,0E0,0E0,0E0,0E0,0E0],"parents":[2147483647,0,0,1,1,2,2,3,3,4,4,5,5,6,6,7,7,9,9,10,10,11,11,12,12,13,13,14,14,15,15,18,18,20,20,21,21,22,22,23,23,24,24,26,26,27,27,28,28,32,32,33,33,34,34,35,35,36,36,38,38,40,40,41,41,42,42,43,43,44,44,45,45,46,46,47,47],"right_children":[2,4,6,8,10,12,14,16,-1,18,20,22,24,26,28,30,-1,-1,32,-1,34,36,38,40,42,-1,44,46,48,-1,-1,-1,50,52,54,56,58,-1,60,-1,62,64,66,68,70,72,74,76,-1,-1,-1,-1,-1,-1,-1,-1,-1,-1,-1,-1,-1,-1,-1,-1,-1,-1,-1,-1,-1,-1,-1,-1,-1,-1,-1,-1,-1],"split_conditions":[-1.1974809E0,-2.099764E0,7.8544396E-1,-2.1312392E0,-1.9423892E0,-2.5323096E-1,1.4674023E0,-2.1732059E0,5.019567E-2,-2.0682893E0,-1.8794392E0,-3.2667264E-1,-2.0077264E-1,7.9593563E-1,1.7401856E0,-2.2151725E0,8.320425E-3,2.1182943E-2,-2.0263226E0,3.8224317E-2,-1.6800976E0,-4.6306428E-1,-3.1618097E-1,-2.427393E-1,-1.797893E-1,-2.4790365E-2,1.4149439E0,1.6352689E0,1.8975606E0,7.1383268E-3,3.8224977E-2,-1.4019673E-3,-1.9843559E0,-1.7010809E0,-1.5856726E0,-6.414226E-1,-3.686393E-1,-3.8731333E-2,-2.8470597E-1,3.8244629E-3,-2.112643E-1,-1.9028097E-1,-1.6929764E-1,1.4044523E0,1.4254357E0,1.5723189E0,1.666744E0,1.8031356E0,1.2687656E-2,9.488046E-3,1.2879855E-2,1.7594276E-2,-1.7039256E-2,3.776971E-2,1.7502427E-2,-5.020145E-4,-7.125621E-3,8.618478E-3,-6.4071417E-3,-5.7371533E-3,-1.8610442E-2,2.1853112E-2,9.491616E-3,-6.111357E-4,-2.9553501E-2,3.8176876E-2,-8.6328154E-4,-8.202243E-3,7.792588E-3,-2.419889E-2,-1.1624019E-2,-7.485288E-4,5.678855E-4,5.798529E-3,3.0580617E-3,8.896655E-3,6.616523E-3],"split_indices":[1,1,1,1,1,1,1,1,0,1,1,1,1,1,1,1,0,0,1,0,1,1,1,1,1,0,1,1,1,0,0,0,1,1,1,1,1,0,1,0,1,1,1,1,1,1,1,1,0,0,0,0,0,0,0,0,0,0,0,0,0,0,0,0,0,0,0,0,0,0,0,0,0,0,0,0,0],"split_type":[0,0,0,0,0,0,0,0,0,0,0,0,0,0,0,0,0,0,0,0,0,0,0,0,0,0,0,0,0,0,0,0,0,0,0,0,0,0,0,0,0,0,0,0,0,0,0,0,0,0,0,0,0,0,0,0,0,0,0,0,0,0,0,0,0,0,0,0,0,0,0,0,0,0,0,0,0],"sum_hessian":[6.446E3,7.16E2,5.73E3,9.7E1,6.19E2,4.058E3,1.672E3,7.5E1,2.2E1,9.6E1,5.23E2,1.921E3,2.137E3,1.323E3,3.49E2,4.9E1,2.6E1,2.8E1,6.8E1,3E1,4.93E2,1.78E3,1.41E2,1.06E2,2.031E3,2.1E1,1.302E3,1.99E2,1.5E2,1.9E1,3E1,2.4E1,4.4E1,1.31E2,3.62E2,1.506E3,2.74E2,1.4E1,1.27E2,1.7E1,8.9E1,4.9E1,1.982E3,1.243E3,5.9E1,1.23E2,7.6E1,1.14E2,3.6E1,2.5E1,1.9E1,1.18E2,1.3E1,8E1,2.82E2,1.152E3,3.54E2,1.78E2,9.6E1,5.9E1,6.8E1,6.4E1,2.5E1,2.5E1,2.4E1,2E1,1.962E3,1.217E3,2.6E1,2.2E1,3.7E1,7.7E1,4.6E1,2.9E1,4.7E1,5.4E1,6E1],"tree_param":{"num_deleted":"0","num_feature":"2","num_nodes":"77","size_leaf_vector":"1"}},{"base_weights":[-1.681079E-4,-8.572578E-2,3.3266583E-1,8.414098E-2,-1.406394E-1,2.9713264E-1,5.4831886E-1,1.3236718E-1,5.3427327E-2,-1.9617002E-1,1.1407911E-2,3.0687553E-1,1.22958735E-1,4.6722785E-1,7.490401E-1,1.2121486E-1,2.3519424E-1,7.544842E-2,1.6821017E-2,-1.2942496E-1,-2.3002942E-1,-5.6017153E-2,7.776758E-2,2.8680512E-1,6.7546856E-1,-1.768425E-2,2.7351648E-1,5.955531E-2,2.1157889E-1,8.6629055E-2,5.924482E-2,1.5204239E-1,7.9740025E-2,3.1235158E-2,1.7919334E-2,1.2281712E-2,8.355993E-2,-2.4485014E-2,3.2428496E-2,-4.238111E-2,-1.3909216E-1,-2.3879379E-1,-1.379904E-1,8.722202E-2,-8.782825E-2,2.5929049E-2,6.723614E-2,2.9526454E-1,1.9830398E-3,8.764254E-2,4.8548896E-2,1.7749725E-2,3.7535466E-2,-1.2532917E-3,3.8445465E-2,1.1326973E-2,3.8587324E-2,-4.3026167E-3,9.219646E-3,1.5371081E-3,1.0077186E-3,9.236858E-3,5.599171E-3,-2.9757738E-3,-7.442591E-4,5.5135866E-3,-1.7482897E-4,-1.6799591E-2,-1.7045088E-3,-1.1274039E-2,-1.4738731E-2,-2.0598743E-2,-2.5116561E-2,-4.3494506E-3,-2.4162054E-2,1.3237732E-2,2.1304998E-3,-1.7972818E-2,-2.9914964E-3,-6.852452E-4,9.208559E-3,1.6727662E-2,3.0968407E-2],"categories":[],"categories_nodes":[],"categories_segments":[],"categories_sizes":[],"default_left":[0,0,0,0,0,0,0,0,0,0,0,0,0,0,0,0,0,0,0,0,0,0,0,0,0,0,0,0,0,0,0,0,0,0,0,0,0,0,0,0,0,0,0,0,0,0,0,0,0,0,0,0,0,0,0,0,0,0,0,0,0,0,0,0,0,0,0,0,0,0,0,0,0,0,0,0,0,0,0,0,0,0,0],"id":15,"left_children":[1,3,5,7,9,11,13,15,17,19,21,23,25,27,29,31,33,35,37,39,41,43,45,47,49,-1,51,-1,53,-1,-1,55,57,-1,-1,59,61,63,65,67,69,71,73,75,77,-1,79,81,-1,-1,-1,-1,-1,-1,-1,-1,-1,-1,-1,-1,-1,-1,-1,-1,-1,-1,-1,-1,-1,-1,-1,-1,-1,-1,-1,-1,-1,-1,-1,-1,-1,-1,-1],"loss_changes":[1.8130989E2,4.7258144E1,9.814102E0,1.8266573E0,3.2323105E1,1.8628616E0,2.628666E0,5.2308273E-1,6.0976315E-1,6.307129E0,4.5905194E0,7.647957E0,2.8017502E0,4.2372227E0,4.2315102E-1,5.453315E-1,1.4278913E-1,2.41328E-1,1.8517333E-1,7.9013634E-1,1.4666367E0,2.3269672E0,9.709146E-1,2.268402E0,1.6361008E0,0E0,3.3429074E-1,0E0,1.7870193E0,0E0,0E0,2.213787E0,2.9146206E-1,0E0,0E0,2.1968596E-4,9.6577644E-2,6.877467E-3,1.6151792E-1,3.0266416E-1,1.6940498E-1,6.3661957E-1,1.5954812E0,2.739945E-1,2.2139914E0,0E0,9.0275097E-1,1.7494202E0,0E0,0E0,0E0,0E0,0E0,0E0,0E0,0E0,0E0,0E0,0E0,0E0,0E0,0E0,0E0,0E0,0E0,0E0,0E0,0E0,0E0,0E0,0E0,0E0,0E0,0E0,0E0,0E0,0E0,0E0,0E0,0E0,0E0,0E0,0E0],"parents":[2147483647,0,0,1,1,2,2,3,3,4,4,5,5,6,6,7,7,8,8,9,9,10,10,11,11,12,12,13,13,14,14,15,15,16,16,17,17,18,18,19,19,20,20,21,21,22,22,23,23,24,24,26,26,28,28,31,31,32,32,35,35,36,36,37,37,38,38,39,39,40,40,41,41,42,42,43,43,44,44,46,46,47,47],"right_children":[2,4,6,8,10,12,14,16,18,20,22,24,26,28,30,32,34,36,38,40,42,44,46,48,50,-1,52,-1,54,-1,-1,56,58,-1,-1,60,62,64,66,68,70,72,74,76,78,-1,80,82,-1,-1,-1,-1,-1,-1,-1,-1,-1,-1,-1,-1,-1,-1,-1,-1,-1,-1,-1,-1,-1,-1,-1,-1,-1,-1,-1,-1,-1,-1,-1,-1,-1,-1,-1],"split_conditions":[9.9389446E-1,-1.0432099E0,1.5442023E0,-1.5259361E0,5.3047734E-1,1.4862752E0,1.7372928E0,-1.5548997E0,-1.2363003E0,-4.6393853E-1,7.6218593E-1,1.4476571E0,1.5055842E0,1.6407475E0,1.814529E0,-1.6997175E0,-1.5452452E0,-1.4969726E0,-1.1880277E0,-9.7562826E-1,4.4358665E-1,5.7875E-1,7.81495E-1,1.4283481E0,1.4669662E0,-1.768425E-2,1.5248933E0,5.955531E-2,1.6890202E0,8.6629055E-2,5.924482E-2,-1.7286811E0,-1.690063E0,3.1235158E-2,1.7919334E-2,-1.5162816E0,-1.303882E0,-1.1976823E0,-1.101137E0,-1.0335554E0,-8.501195E-1,-2.032664E-1,4.918593E-1,5.594409E-1,6.559862E-1,2.5929049E-2,8.394221E-1,1.0325125E0,1.9830398E-3,8.764254E-2,4.8548896E-2,1.7749725E-2,3.7535466E-2,-1.2532917E-3,3.8445465E-2,1.1326973E-2,3.8587324E-2,-4.3026167E-3,9.219646E-3,1.5371081E-3,1.0077186E-3,9.236858E-3,5.599171E-3,-2.9757738E-3,-7.442591E-4,5.5135866E-3,-1.7482897E-4,-1.6799591E-2,-1.7045088E-3,-1.1274039E-2,-1.4738731E-2,-2.0598743E-2,-2.5116561E-2,-4.3494506E-3,-2.4162054E-2,1.3237732E-2,2.1304998E-3,-1.7972818E-2,-2.9914964E-3,-6.852452E-4,9.208559E-3,1.6727662E-2,3.0968407E-2],"split_indices":[0,0,0,0,0,0,0,0,0,0,0,0,0,0,0,0,0,0,0,0,0,0,0,0,0,0,0,0,0,0,0,0,0,0,0,0,0,0,0,0,0,0,0,0,0,0,0,0,0,0,0,0,0,0,0,0,0,0,0,0,0,0,0,0,0,0,0,0,0,0,0,0,0,0,0,0,0,0,0,0,0,0,0],"split_type":[0,0,0,0,0,0,0,0,0,0,0,0,0,0,0,0,0,0,0,0,0,0,0,0,0,0,0,0,0,0,0,0,0,0,0,0,0,0,0,0,0,0,0,0,0,0,0,0,0,0,0,0,0,0,0,0,0,0,0,0,0,0,0,0,0,0,0,0,0,0,0,0,0,0,0,0,0,0,0,0,0,0,0],"sum_hessian":[6.365E3,5.064E3,1.301E3,1.237E3,3.827E3,1.119E3,1.82E2,4.8E2,7.57E2,2.803E3,1.024E3,1.059E3,6E1,1.32E2,5E1,4.35E2,4.5E1,4.72E2,2.85E2,9.45E2,1.858E3,5.08E2,5.16E2,1.006E3,5.3E1,2E1,4E1,8.7E1,4.5E1,2.6E1,2.4E1,2.48E2,1.87E2,1.7E1,2.8E1,5.4E1,4.18E2,7.8E1,2.07E2,9.5E1,8.5E2,1.695E3,1.63E2,9.2E1,4.16E2,2.7E1,4.89E2,9.75E2,3.1E1,2.4E1,2.9E1,2.2E1,1.8E1,2E1,2.5E1,2.14E2,3.4E1,1.7E1,1.7E2,2E1,3.4E1,3.15E2,1.03E2,5.9E1,1.9E1,1.24E2,8.3E1,1.5E1,8E1,2.07E2,6.43E2,4.69E2,1.226E3,8.6E1,7.7E1,5.4E1,3.8E1,1.6E2,2.56E2,1.23E2,3.66E2,1E2,8.75E2],"tree_param":{"num_deleted":"0","num_feature":"2","num_nodes":"83","size_leaf_vector":"1"}},{"base_weights":[8.412915E-3,1.1586682E-1,-5.4523665E-3,5.9620023E-2,1.5564004E-1,1.2223656E-2,-2.2195876E-2,8.975307E-2,-2.0864047E-2,1.7974502E-1,1.1174128E-1,-3.5093133E-3,1.3313541E-1,-3.0453278E-2,5.691568E-2,1.5257768E-1,3.4438074E-2,1.3362166E-1,2.625307E-1,-1.817042E-2,1.7839348E-1,-1.3405465E-1,1.8113219E-4,2.5483617E-1,6.0666267E-2,-2.0310925E-2,-7.623202E-2,3.9151482E-2,1.905891E-2,1.2978959E-1,1.8666891E-2,-8.408344E-2,1.4036201E-1,1.7669225E-1,-6.840955E-3,3.5086762E-2,2.3796195E-1,2.7800104E-1,1.1139645E-1,-1.8443473E-2,-2.8490916E-2,7.188997E-2,-7.5187804E-3,4.4941798E-2,2.0299618E-1,-1.3989295E-2,3.2567212E-1,-2.3201888E-2,2.6116723E-2,-1.13972954E-1,-2.8113259E-2,1.1523548E-2,2.9939907E-2,1.5721938E-2,6.677317E-3,-1.1639628E-2,8.777144E-4,2.0686604E-2,8.141999E-3,1.4199907E-2,2.4528863E-2,1.6236749E-2,2.8340071E-2,1.4578245E-2,4.043884E-2,8.635605E-4,2.5563404E-2,1.8340051E-3,-7.851978E-3,5.010304E-3,1.806528E-2,5.0375843E-4,-3.1022432E-3,7.7838823E-3,2.7804408E-2,9.150182E-3,-5.71911E-3,7.0010565E-2,6.3987854E-3,-1.9391565E-2,-2.149589E-3,-5.8666524E-3,-1.25827035E-2,1.4104731E-2,-5.2649598E-3,3.5496068E-3,-3.8168356E-3],"categories":[],"categories_nodes":[],"categories_segments":[],"categories_sizes":[],"default_left":[0,0,0,0,0,0,0,0,0,0,0,0,0,0,0,0,0,0,0,0,0,0,0,0,0,0,0,0,0,0,0,0,0,0,0,0,0,0,0,0,0,0,0,0,0,0,0,0,0,0,0,0,0,0,0,0,0,0,0,0,0,0,0,0,0,0,0,0,0,0,0,0,0,0,0,0,0,0,0,0,0,0,0,0,0,0,0],"id":16,"left_children":[1,3,5,7,9,11,13,15,-1,17,19,21,23,25,27,29,31,33,35,-1,37,39,41,43,45,47,49,51,-1,53,-1,55,57,59,-1,-1,61,63,65,67,-1,69,71,-1,73,75,77,79,-1,81,83,-1,85,-1,-1,-1,-1,-1,-1,-1,-1,-1,-1,-1,-1,-1,-1,-1,-1,-1,-1,-1,-1,-1,-1,-1,-1,-1,-1,-1,-1,-1,-1,-1,-1,-1,-1],"loss_changes":[9.516486E0,1.6238155E0,1.6748054E0,2.476112E0,4.3175697E-1,5.2375016E0,1.9000951E0,9.4693494E-1,0E0,1.0111494E0,3.0444684E0,1.1740988E0,2.7803373E0,1.2205005E0,6.455534E-1,7.5212E-2,1.8572792E0,1.5609734E0,1.2702894E-1,0E0,8.098817E-1,1.1632566E0,1.3096924E0,1.0990496E0,3.961388E0,1.7604902E0,8.630502E-1,1.675581E-1,0E0,1.2778413E-1,0E0,2.1106285E-1,2.8890777E-1,3.1500387E-1,0E0,0E0,2.253437E-1,7.765851E-1,1.1390843E0,8.762296E-2,0E0,5.3595865E-1,6.323042E-1,0E0,8.7067294E-1,7.2074586E-1,4.266469E0,6.176243E-1,0E0,1.6766524E-1,8.831985E-1,0E0,8.422889E-2,0E0,0E0,0E0,0E0,0E0,0E0,0E0,0E0,0E0,0E0,0E0,0E0,0E0,0E0,0E0,0E0,0E0,0E0,0E0,0E0,0E0,0E0,0E0,0E0,0E0,0E0,0E0,0E0,0E0,0E0,0E0,0E0,0E0,0E0],"parents":[2147483647,0,0,1,1,2,2,3,3,4,4,5,5,6,6,7,7,9,9,10,10,11,11,12,12,13,13,14,14,15,15,16,16,17,17,18,18,20,20,21,21,22,22,23,23,24,24,25,25,26,26,27,27,29,29,31,31,32,32,33,33,36,36,37,37,38,38,39,39,41,41,42,42,44,44,45,45,46,46,47,47,49,49,50,50,52,52],"right_children":[2,4,6,8,10,12,14,16,-1,18,20,22,24,26,28,30,32,34,36,-1,38,40,42,44,46,48,50,52,-1,54,-1,56,58,60,-1,-1,62,64,66,68,-1,70,72,-1,74,76,78,80,-1,82,84,-1,86,-1,-1,-1,-1,-1,-1,-1,-1,-1,-1,-1,-1,-1,-1,-1,-1,-1,-1,-1,-1,-1,-1,-1,-1,-1,-1,-1,-1,-1,-1,-1,-1,-1,-1],"split_conditions":[-1.1974809E0,-1.7745225E0,1.6643567E-1,-1.8059976E0,-1.386331E0,9.060686E-3,1.5723189E0,-2.0682893E0,-2.0864047E-2,-1.5332142E0,-1.3548559E0,-1.166006E0,7.201068E-2,1.2470773E0,1.8975606E0,-2.1312392E0,-1.9423892E0,-1.5856726E0,-1.5017393E0,-1.817042E-2,-1.2919059E0,-1.1764976E0,-1.0610893E0,1.9552352E-2,1.4545235E-1,1.2365856E0,1.3729773E0,1.6142856E0,1.905891E-2,-2.1732059E0,1.8666891E-2,-1.9843559E0,-1.8794392E0,-1.6486225E0,-6.840955E-3,3.5086762E-2,-1.4597726E0,-1.323381E0,-1.2289559E0,-1.1869893E0,-2.8490916E-2,-1.0820726E0,-3.686393E-1,4.4941798E-2,4.0535685E-2,9.299401E-2,1.5594402E-1,1.7692734E-1,2.6116723E-2,1.2680607E0,1.383469E0,1.1523548E-2,1.8765773E0,1.5721938E-2,6.677317E-3,-1.1639628E-2,8.777144E-4,2.0686604E-2,8.141999E-3,1.4199907E-2,2.4528863E-2,1.6236749E-2,2.8340071E-2,1.4578245E-2,4.043884E-2,8.635605E-4,2.5563404E-2,1.8340051E-3,-7.851978E-3,5.010304E-3,1.806528E-2,5.0375843E-4,-3.1022432E-3,7.7838823E-3,2.7804408E-2,9.150182E-3,-5.71911E-3,7.0010565E-2,6.3987854E-3,-1.9391565E-2,-2.149589E-3,-5.8666524E-3,-1.25827035E-2,1.4104731E-2,-5.2649598E-3,3.5496068E-3,-3.8168356E-3],"split_indices":[1,1,1,1,1,1,1,1,0,1,1,1,1,1,1,1,1,1,1,0,1,1,1,1,1,1,1,1,0,1,0,1,1,1,0,0,1,1,1,1,0,1,1,0,1,1,1,1,0,1,1,0,1,0,0,0,0,0,0,0,0,0,0,0,0,0,0,0,0,0,0,0,0,0,0,0,0,0,0,0,0,0,0,0,0,0,0],"split_type":[0,0,0,0,0,0,0,0,0,0,0,0,0,0,0,0,0,0,0,0,0,0,0,0,0,0,0,0,0,0,0,0,0,0,0,0,0,0,0,0,0,0,0,0,0,0,0,0,0,0,0,0,0,0,0,0,0,0,0,0,0,0,0,0,0,0,0,0,0,0,0,0,0,0,0,0,0,0,0,0,0,0,0,0,0,0,0],"sum_hessian":[6.386E3,7.29E2,5.657E3,3.03E2,4.26E2,2.752E3,2.905E3,2.73E2,3E1,2.73E2,1.53E2,2.436E3,3.16E2,2.631E3,2.74E2,1.27E2,1.46E2,1.77E2,9.6E1,2.8E1,1.25E2,6.6E1,2.37E3,1.17E2,1.99E2,2.155E3,4.76E2,2.43E2,3.1E1,7.9E1,4.8E1,6.9E1,7.7E1,1.46E2,3.1E1,1.8E1,7.8E1,4.9E1,7.6E1,3.8E1,2.8E1,2.29E2,2.141E3,2.3E1,9.4E1,1.56E2,4.3E1,2.134E3,2.1E1,2.66E2,2.1E2,2.5E1,2.18E2,5.4E1,2.5E1,5.1E1,1.8E1,3.5E1,4.2E1,9.9E1,4.7E1,3.1E1,4.7E1,2.5E1,2.4E1,4.5E1,3.1E1,2.4E1,1.4E1,1.92E2,3.7E1,1.396E3,7.45E2,3.6E1,5.8E1,4.5E1,1.11E2,1.7E1,2.6E1,2E1,2.114E3,4.8E1,2.18E2,2.6E1,1.84E2,2.02E2,1.6E1],"tree_param":{"num_deleted":"0","num_feature":"2","num_nodes":"87","size_leaf_vector":"1"}},{"base_weights":[2.9782418E-3,1.4673896E-1,-1.7208759E-2,2.9400247E-1,1.3517767E-1,-2.0453611E-2,9.2473395E-2,1.8573249E-2,3.4458082E-2,1.5306835E-1,1.1430228E-1,-9.904899E-3,-4.719861E-2,7.687153E-2,1.4054066E-1,9.928111E-2,1.840573E-1,-9.799137E-3,1.5393697E-1,-2.385473E-2,-8.776306E-3,-1.4512762E-1,-4.0896125E-2,9.980602E-3,3.6311478E-3,1.4416883E-2,3.1492338E-4,1.5877898E-1,4.085368E-2,3.6552545E-2,1.5606178E-1,4.655321E-2,-1.1090673E-2,3.428035E-2,1.06660984E-1,1.2376563E-1,-1.0513854E-2,-1.1369479E-2,-1.7830238E-1,3.304303E-2,-4.4536248E-2,1.0509207E-2,2.3747347E-2,1.8878224E-4,1.2717416E-2,8.05278E-3,1.9300153E-2,2.73878E-3,7.3185265E-3,-2.2382509E-2,1.5960755E-2,1.6001185E-2,8.957176E-3,3.7106348E-4,-1.9219872E-3,-2.2349805E-2,-1.2031178E-2,-1.2694616E-3,1.0296666E-2,-1.5835898E-2,-3.7821915E-3],"categories":[],"categories_nodes":[],"categories_segments":[],"categories_sizes":[],"default_left":[0,0,0,0,0,0,0,0,0,0,0,0,0,0,0,0,0,0,0,0,0,0,0,0,0,0,0,0,0,0,0,0,0,0,0,0,0,0,0,0,0,0,0,0,0,0,0,0,0,0,0,0,0,0,0,0,0,0,0,0,0],"id":17,"left_children":[1,3,5,7,9,11,13,-1,-1,15,17,19,21,23,25,27,29,31,33,-1,35,37,39,-1,-1,-1,-1,41,43,-1,45,47,-1,-1,49,51,53,-1,55,57,59,-1,-1,-1,-1,-1,-1,-1,-1,-1,-1,-1,-1,-1,-1,-1,-1,-1,-1,-1,-1],"loss_changes":[1.8407629E1,1.2899551E0,1.9814203E0,2.426629E-1,2.5364494E-1,1.5238557E0,1.0918689E-1,0E0,0E0,6.2844944E-1,1.6689553E0,9.9808556E-1,9.371402E-1,1.1079347E-1,1.8488169E-2,4.9410176E-1,1.1876268E0,4.7806796E-1,2.258151E0,0E0,8.8979083E-1,7.566333E-2,3.8823676E-1,0E0,0E0,0E0,0E0,2.7500868E-1,2.4866271E-1,0E0,5.8156204E-1,2.5557995E-2,0E0,0E0,3.6578312E0,4.7637343E-2,4.717728E-1,0E0,8.58103E-2,2.1878079E-1,1.0410247E0,0E0,0E0,0E0,0E0,0E0,0E0,0E0,0E0,0E0,0E0,0E0,0E0,0E0,0E0,0E0,0E0,0E0,0E0,0E0,0E0],"parents":[2147483647,0,0,1,1,2,2,3,3,4,4,5,5,6,6,9,9,10,10,11,11,12,12,13,13,14,14,15,15,16,16,17,17,18,18,20,20,21,21,22,22,27,27,28,28,30,30,31,31,34,34,35,35,36,36,38,38,39,39,40,40],"right_children":[2,4,6,8,10,12,14,-1,-1,16,18,20,22,24,26,28,30,32,34,-1,36,38,40,-1,-1,-1,-1,42,44,-1,46,48,-1,-1,50,52,54,-1,56,58,60,-1,-1,-1,-1,-1,-1,-1,-1,-1,-1,-1,-1,-1,-1,-1,-1,-1,-1,-1,-1],"split_conditions":[-1.166006E0,-2.1732059E0,1.7401856E0,-2.2151725E0,-1.5856726E0,7.8544396E-1,1.8975606E0,1.8573249E-2,3.4458082E-2,-1.9423892E0,-1.4597726E0,-1.1555142E0,8.2741064E-1,1.8451023E0,1.9500189E0,-2.0682893E0,-1.8794392E0,-1.5017393E0,-1.386331E0,-2.385473E-2,-1.1345309E0,8.064273E-1,8.5888565E-1,9.980602E-3,3.6311478E-3,1.4416883E-2,3.1492338E-4,-2.099764E0,-1.9843559E0,3.6552545E-2,-1.7745225E0,-1.5332142E0,-1.1090673E-2,3.428035E-2,-1.3548559E0,-1.1450226E0,-4.001143E-1,-1.1369479E-2,8.1691897E-1,8.48394E-1,9.008523E-1,1.0509207E-2,2.3747347E-2,1.8878224E-4,1.2717416E-2,8.05278E-3,1.9300153E-2,2.73878E-3,7.3185265E-3,-2.2382509E-2,1.5960755E-2,1.6001185E-2,8.957176E-3,3.7106348E-4,-1.9219872E-3,-2.2349805E-2,-1.2031178E-2,-1.2694616E-3,1.0296666E-2,-1.5835898E-2,-3.7821915E-3],"split_indices":[1,1,1,1,1,1,1,0,0,1,1,1,1,1,1,1,1,1,1,0,1,1,1,0,0,0,0,1,1,0,1,1,0,0,1,1,1,0,1,1,1,0,0,0,0,0,0,0,0,0,0,0,0,0,0,0,0,0,0,0,0],"split_type":[0,0,0,0,0,0,0,0,0,0,0,0,0,0,0,0,0,0,0,0,0,0,0,0,0,0,0,0,0,0,0,0,0,0,0,0,0,0,0,0,0,0,0,0,0,0,0,0,0,0,0,0,0,0,0,0,0,0,0,0,0],"sum_hessian":[6.341E3,7.8E2,5.561E3,5.5E1,7.25E2,5.402E3,1.59E2,1.9E1,3.6E1,3.87E2,3.38E2,3.875E3,1.527E3,1.22E2,3.7E1,1.43E2,2.44E2,8.2E1,2.56E2,1.8E1,3.857E3,9.1E1,1.436E3,7.7E1,4.5E1,3.6E1,1E0,7E1,7.3E1,3.1E1,2.13E2,5.3E1,2.9E1,5E1,2.06E2,4.9E1,3.808E3,4.9E1,4.2E1,6.7E1,1.369E3,4.3E1,2.7E1,5.1E1,2.2E1,7.1E1,1.42E2,3.2E1,2.1E1,2.8E1,1.78E2,2.2E1,2.7E1,1.446E3,2.362E3,2.2E1,2E1,4.1E1,2.6E1,7.5E1,1.294E3],"tree_param":{"num_deleted":"0","num_feature":"2","num_nodes":"61","size_leaf_vector":"1"}},{"base_weights":[6.8046907E-3,1.8531774E-1,-1.5005077E-2,4.016284E-1,1.6772778E-1,6.3229183E-4,-3.199602E-2,4.7668587E-2,3.5155233E-2,-1.7020106E-3,1.7483795E-1,-1.220026E-2,5.7561006E-2,-2.274884E-1,-2.784789E-2,1.880166E-1,9.630091E-2,5.4656804E-2,-1.7999426E-2,1.6215442E-1,2.1793026E-2,-1.1351766E-2,-3.0693626E-2,-3.485679E-2,3.1055516E-2,1.6882963E-1,5.8950424E-2,4.0959507E-2,1.440299E-1,-4.303615E-2,1.22991346E-1,-2.7139958E-2,1.0717825E-2,5.851303E-2,2.265512E-1,-6.54187E-2,5.4279428E-2,-2.5884153E-2,-6.948057E-2,1.5852077E-2,1.2454045E-1,1.858244E-2,-1.2062899E-2,3.3325122E-3,4.7734072E-3,1.9051481E-2,1.10893035E-2,7.4921893E-3,-1.2996159E-2,1.9207017E-2,6.292517E-3,-1.5087788E-3,-1.0509573E-2,1.0108485E-2,-3.362852E-3,1.22309495E-2,-6.8801814E-3,2.8352106E-2,1.4344188E-2,4.5326105E-3,-1.4619303E-2,2.3540894E-2,7.0647453E-4,-3.1034548E-3,2.2252677E-2,-1.0687341E-2,-3.6357006E-3,5.581916E-3,1.1320697E-3,1.2758036E-2,2.9917734E-4],"categories":[],"categories_nodes":[],"categories_segments":[],"categories_sizes":[],"default_left":[0,0,0,0,0,0,0,0,0,0,0,0,0,0,0,0,0,0,0,0,0,0,0,0,0,0,0,0,0,0,0,0,0,0,0,0,0,0,0,0,0,0,0,0,0,0,0,0,0,0,0,0,0,0,0,0,0,0,0,0,0,0,0,0,0,0,0,0,0,0,0],"id":18,"left_children":[1,3,5,7,9,11,13,-1,-1,-1,15,17,19,21,23,25,27,29,31,33,35,-1,-1,37,39,41,-1,43,45,47,49,51,53,55,57,59,61,63,65,67,69,-1,-1,-1,-1,-1,-1,-1,-1,-1,-1,-1,-1,-1,-1,-1,-1,-1,-1,-1,-1,-1,-1,-1,-1,-1,-1,-1,-1,-1,-1],"loss_changes":[2.5068027E1,2.599865E0,1.5245702E0,2.7866364E-2,8.568115E-1,2.1842885E0,2.2237163E0,0E0,0E0,0E0,6.2981033E-1,9.4700897E-1,2.0540686E0,4.81277E-1,1.1132951E0,4.0217533E0,2.3710841E-1,1.3070748E0,5.898456E-1,9.211278E-1,1.167994E0,0E0,0E0,7.462864E-1,4.0593666E-1,2.541089E0,0E0,6.849244E-4,5.4350972E-2,8.402748E-1,4.650836E-1,1.5993842E0,2.1794434E0,4.5513806E-1,3.6651802E-1,1.0085042E0,2.5639284E0,2.4557052E0,6.092136E-1,4.428238E-2,1.4398277E-2,0E0,0E0,0E0,0E0,0E0,0E0,0E0,0E0,0E0,0E0,0E0,0E0,0E0,0E0,0E0,0E0,0E0,0E0,0E0,0E0,0E0,0E0,0E0,0E0,0E0,0E0,0E0,0E0,0E0,0E0],"parents":[2147483647,0,0,1,1,2,2,3,3,4,4,5,5,6,6,10,10,11,11,12,12,13,13,14,14,15,15,16,16,17,17,18,18,19,19,20,20,23,23,24,24,25,25,27,27,28,28,29,29,30,30,31,31,32,32,33,33,34,34,35,35,36,36,37,37,38,38,39,39,40,40],"right_children":[2,4,6,8,10,12,14,-1,-1,-1,16,18,20,22,24,26,28,30,32,34,36,-1,-1,38,40,42,-1,44,46,48,50,52,54,56,58,60,62,64,66,68,70,-1,-1,-1,-1,-1,-1,-1,-1,-1,-1,-1,-1,-1,-1,-1,-1,-1,-1,-1,-1,-1,-1,-1,-1,-1,-1,-1,-1,-1,-1],"split_conditions":[-1.1974809E0,-2.1732059E0,2.6086068E-1,-2.2151725E0,-2.1312392E0,9.060686E-3,2.9233566E-1,4.7668587E-2,3.5155233E-2,-1.7020106E-3,-1.323381E0,-1.103056E0,7.201068E-2,2.7135235E-1,1.5723189E0,-1.3548559E0,-1.2604309E0,-1.1555142E0,-2.5323096E-1,3.004402E-2,1.2446901E-1,-1.1351766E-2,-3.0693626E-2,1.2470773E0,1.8975606E0,-1.386331E0,5.8950424E-2,-1.2919059E0,-1.2289559E0,-1.1764976E0,-1.1345309E0,-3.686393E-1,-1.6929764E-1,1.9552352E-2,5.102735E-2,9.299401E-2,1.5594402E-1,1.226094E0,1.3519939E0,1.6142856E0,1.9500189E0,1.858244E-2,-1.2062899E-2,3.3325122E-3,4.7734072E-3,1.9051481E-2,1.10893035E-2,7.4921893E-3,-1.2996159E-2,1.9207017E-2,6.292517E-3,-1.5087788E-3,-1.0509573E-2,1.0108485E-2,-3.362852E-3,1.22309495E-2,-6.8801814E-3,2.8352106E-2,1.4344188E-2,4.5326105E-3,-1.4619303E-2,2.3540894E-2,7.0647453E-4,-3.1034548E-3,2.2252677E-2,-1.0687341E-2,-3.6357006E-3,5.581916E-3,1.1320697E-3,1.2758036E-2,2.9917734E-4],"split_indices":[1,1,1,1,1,1,1,0,0,0,1,1,1,1,1,1,1,1,1,1,1,0,0,1,1,1,0,1,1,1,1,1,1,1,1,1,1,1,1,1,1,0,0,0,0,0,0,0,0,0,0,0,0,0,0,0,0,0,0,0,0,0,0,0,0,0,0,0,0,0,0],"split_type":[0,0,0,0,0,0,0,0,0,0,0,0,0,0,0,0,0,0,0,0,0,0,0,0,0,0,0,0,0,0,0,0,0,0,0,0,0,0,0,0,0,0,0,0,0,0,0,0,0,0,0,0,0,0,0,0,0,0,0,0,0,0,0,0,0,0,0,0,0,0,0],"sum_hessian":[6.437E3,7E2,5.737E3,5.1E1,6.49E2,2.988E3,2.749E3,1.7E1,3.4E1,2.4E1,6.25E2,2.439E3,5.49E2,5.6E1,2.693E3,5.34E2,9.1E1,1.94E2,2.245E3,1.39E2,4.1E2,2.4E1,3.2E1,2.407E3,2.86E2,5.11E2,2.3E1,4.3E1,4.8E1,8E1,1.14E2,1.703E3,5.42E2,5.4E1,8.5E1,1.11E2,2.99E2,1.913E3,4.94E2,2.47E2,3.9E1,4.83E2,2.8E1,2.3E1,2E1,1.8E1,3E1,3.4E1,4.6E1,5.2E1,6.2E1,1.476E3,2.27E2,1.78E2,3.64E2,3.6E1,1.8E1,4.9E1,3.6E1,4.7E1,6.4E1,6.1E1,2.38E2,1.875E3,3.8E1,2.31E2,2.63E2,2.4E1,2.23E2,3.8E1,1E0],"tree_param":{"num_deleted":"0","num_feature":"2","num_nodes":"71","size_leaf_vector":"1"}},{"base_weights":[9.926549E-4,-7.858535E-2,2.8846243E-1,6.154258E-2,-1.2551077E-1,2.185239E-1,3.959255E-1,9.4627135E-2,4.033109E-3,-1.6131575E-1,2.6085619E-2,1.7130361E-1,2.7388474E-1,3.716412E-1,5.3014755E-2,1.1910135E-1,8.384851E-2,-1.1994946E-3,9.122223E-3,-8.48318E-2,-1.7118338E-1,3.677192E-2,1.775154E-2,1.8481976E-1,-1.03733735E-2,2.919774E-1,3.2775395E-3,3.8535744E-1,1.1536944E-2,9.229082E-2,2.6920883E-2,6.9955096E-2,1.1394813E-1,9.948785E-3,-7.3642634E-2,-8.9398466E-2,-4.2770705E-3,-1.85818E-1,-1.0681752E-1,-5.826089E-2,5.4116666E-2,1.19894855E-1,2.256183E-1,2.7784857E-1,4.951338E-2,5.3370744E-2,3.64536E-1,1.3901127E-2,6.668961E-3,9.334335E-3,1.1802398E-3,1.8580563E-2,8.589216E-3,-1.5163488E-3,1.957091E-3,-9.558412E-3,-5.1448946E-3,-8.436539E-3,-1.990568E-2,-1.5535655E-2,-2.0298181E-2,-5.49104E-3,-2.8776396E-2,-8.347162E-4,-7.6965764E-3,5.2651983E-2,2.5525142E-3,1.7276116E-2,-1.3257327E-2,2.097117E-2,3.643826E-2,3.3121407E-2,1.8812513E-2,3.4808226E-2,5.3722043E-2],"categories":[],"categories_nodes":[],"categories_segments":[],"categories_sizes":[],"default_left":[0,0,0,0,0,0,0,0,0,0,0,0,0,0,0,0,0,0,0,0,0,0,0,0,0,0,0,0,0,0,0,0,0,0,0,0,0,0,0,0,0,0,0,0,0,0,0,0,0,0,0,0,0,0,0,0,0,0,0,0,0,0,0,0,0,0,0,0,0,0,0,0,0,0,0],"id":19,"left_children":[1,3,5,7,9,11,13,15,17,19,21,23,25,27,-1,29,31,33,-1,35,37,-1,39,41,-1,43,-1,45,-1,47,-1,49,51,53,55,57,-1,59,61,63,65,67,69,71,-1,-1,73,-1,-1,-1,-1,-1,-1,-1,-1,-1,-1,-1,-1,-1,-1,-1,-1,-1,-1,-1,-1,-1,-1,-1,-1,-1,-1,-1,-1],"loss_changes":[1.4592752E2,3.285923E1,1.0307854E1,2.3855734E0,2.0320858E1,2.1489754E0,1.5761337E0,1.9999695E-1,2.095172E-1,2.270752E0,2.032069E0,1.7143259E0,1.66992E0,1.5865479E0,0E0,9.4504976E-1,2.2454095E-1,3.5123816E-1,0E0,6.301999E-2,2.5055695E0,0E0,1.9380939E0,1.1251955E0,0E0,8.9001846E-1,0E0,1.1645432E0,0E0,2.37126E-1,0E0,5.198127E-1,3.3483028E-1,9.139256E-2,2.3326099E-2,1.5595698E-1,0E0,1.1098175E0,4.671011E0,2.1129155E-1,6.388749E0,2.2919028E0,5.1071835E-1,1.5512924E0,0E0,0E0,9.182739E-1,0E0,0E0,0E0,0E0,0E0,0E0,0E0,0E0,0E0,0E0,0E0,0E0,0E0,0E0,0E0,0E0,0E0,0E0,0E0,0E0,0E0,0E0,0E0,0E0,0E0,0E0,0E0,0E0],"parents":[2147483647,0,0,1,1,2,2,3,3,4,4,5,5,6,6,7,7,8,8,9,9,10,10,11,11,12,12,13,13,15,15,16,16,17,17,19,19,20,20,22,22,23,23,25,25,27,27,29,29,31,31,32,32,33,33,34,34,35,35,37,37,38,38,39,39,40,40,41,41,42,42,43,43,46,46],"right_children":[2,4,6,8,10,12,14,16,18,20,22,24,26,28,-1,30,32,34,-1,36,38,-1,40,42,-1,44,-1,46,-1,48,-1,50,52,54,56,58,-1,60,62,64,66,68,70,72,-1,-1,74,-1,-1,-1,-1,-1,-1,-1,-1,-1,-1,-1,-1,-1,-1,-1,-1,-1,-1,-1,-1,-1,-1,-1,-1,-1,-1,-1,-1],"split_conditions":[9.745854E-1,-1.0432099E0,1.3221483E0,-1.3521546E0,6.559862E-1,1.1580213E0,1.6890202E0,-1.6997175E0,-1.062519E0,-8.211559E-1,6.656407E-1,1.1483668E0,1.3124938E0,1.6407475E0,5.3014755E-2,-1.7286811E0,-1.4583545E0,-1.101137E0,9.122223E-3,-8.4046495E-1,4.0496856E-1,3.677192E-2,7.6218593E-1,1.0421671E0,-1.03733735E-2,1.3028393E0,3.2775395E-3,1.3414574E0,1.1536944E-2,-1.912117E0,2.6920883E-2,-1.5162816E0,-1.4293909E0,-1.284573E0,-1.081828E0,-8.501195E-1,-4.2770705E-3,-3.4808424E-1,5.9805906E-1,6.946043E-1,7.81495E-1,1.0325125E0,1.1387123E0,1.2449121E0,4.951338E-2,5.3370744E-2,1.6021295E0,1.3901127E-2,6.668961E-3,9.334335E-3,1.1802398E-3,1.8580563E-2,8.589216E-3,-1.5163488E-3,1.957091E-3,-9.558412E-3,-5.1448946E-3,-8.436539E-3,-1.990568E-2,-1.5535655E-2,-2.0298181E-2,-5.49104E-3,-2.8776396E-2,-8.347162E-4,-7.6965764E-3,5.2651983E-2,2.5525142E-3,1.7276116E-2,-1.3257327E-2,2.097117E-2,3.643826E-2,3.3121407E-2,1.8812513E-2,3.4808226E-2,5.3722043E-2],"split_indices":[0,0,0,0,0,0,0,0,0,0,0,0,0,0,0,0,0,0,0,0,0,0,0,0,0,0,0,0,0,0,0,0,0,0,0,0,0,0,0,0,0,0,0,0,0,0,0,0,0,0,0,0,0,0,0,0,0,0,0,0,0,0,0,0,0,0,0,0,0,0,0,0,0,0,0],"split_type":[0,0,0,0,0,0,0,0,0,0,0,0,0,0,0,0,0,0,0,0,0,0,0,0,0,0,0,0,0,0,0,0,0,0,0,0,0,0,0,0,0,0,0,0,0,0,0,0,0,0,0,0,0,0,0,0,0,0,0,0,0,0,0,0,0,0,0,0,0,0,0,0,0,0,0],"sum_hessian":[6.377E3,4.995E3,1.382E3,1.253E3,3.742E3,8.39E2,5.43E2,7.95E2,4.58E2,3.027E3,7.15E2,4.55E2,3.84E2,4.63E2,8E1,2.4E2,5.55E2,4.33E2,2.5E1,3.47E2,2.68E3,1.6E1,6.99E2,4.34E2,2.1E1,3.57E2,2.7E1,4.39E2,2.4E1,2.05E2,3.5E1,3.82E2,1.73E2,3.76E2,5.7E1,3.12E2,3.5E1,2.182E3,4.98E2,2.26E2,4.73E2,1.69E2,2.65E2,3.36E2,2.1E1,5.1E1,3.88E2,7.1E1,1.34E2,2.72E2,1.1E2,4.7E1,1.26E2,1.04E2,2.72E2,2.7E1,3E1,3E2,1.2E1,7.9E2,1.392E3,3.88E2,1.1E2,6.2E1,1.64E2,2.6E1,4.47E2,1.4E2,2.9E1,2.4E2,2.5E1,2.09E2,1.27E2,3.57E2,3.1E1],"tree_param":{"num_deleted":"0","num_feature":"2","num_nodes":"75","size_leaf_vector":"1"}},{"base_weights":[4.283799E-3,1.0179637E-1,-8.065789E-3,3.1931874E-1,8.566385E-2,1.2446707E-2,-1.6531527E-2,2.0653429E-2,3.7278127E-2,5.43976E-2,1.3759837E-1,-1.2765377E-2,5.836745E-2,-1.0985133E-1,-1.0883397E-2,1.6172318E-1,2.3613317E-2,2.2418705E-1,7.640761E-2,-2.466573E-4,-8.313305E-2,2.8338468E-2,3.999268E-2,-1.5978085E-2,-8.808078E-2,5.901368E-4,-2.7774332E-2,1.17982626E-1,2.00272E-2,-5.247489E-2,6.2074557E-2,1.1637515E-2,2.5372827E-1,-1.4441806E-2,1.4103079E-1,-1.4216264E-2,1.03104845E-1,-1.390762E-1,3.8288566E-3,2.958982E-2,1.7718878E-2,1.4390991E-3,-1.05263695E-1,-4.044864E-2,9.886263E-3,-1.6492587E-1,-2.135864E-2,9.245659E-3,1.394888E-2,-9.3757873E-4,-3.2481086E-2,1.9185305E-2,1.4641889E-3,2.7956892E-2,1.9575393E-2,2.4679706E-2,7.4437084E-3,2.1638918E-4,-7.179039E-3,3.5702866E-2,9.768666E-4,-4.635369E-3,-1.6852196E-2,1.2895927E-2,-1.51637485E-2,3.850083E-3,-2.1364143E-2,-1.53650185E-2,-7.3285648E-3,9.778762E-4,-9.554523E-3,3.249445E-2,5.877298E-4,-3.1052629E-2,-1.2818067E-2,-3.484978E-3,2.7705566E-3],"categories":[],"categories_nodes":[],"categories_segments":[],"categories_sizes":[],"default_left":[0,0,0,0,0,0,0,0,0,0,0,0,0,0,0,0,0,0,0,0,0,0,0,0,0,0,0,0,0,0,0,0,0,0,0,0,0,0,0,0,0,0,0,0,0,0,0,0,0,0,0,0,0,0,0,0,0,0,0,0,0,0,0,0,0,0,0,0,0,0,0,0,0,0,0,0,0],"id":20,"left_children":[1,3,5,7,9,11,13,-1,-1,15,17,19,21,23,25,27,29,31,33,35,37,-1,39,-1,41,43,45,47,-1,49,51,-1,53,-1,55,57,59,61,63,65,-1,-1,67,69,71,73,75,-1,-1,-1,-1,-1,-1,-1,-1,-1,-1,-1,-1,-1,-1,-1,-1,-1,-1,-1,-1,-1,-1,-1,-1,-1,-1,-1,-1,-1,-1],"loss_changes":[7.659788E0,2.4817128E0,9.806528E-1,2.1846533E-1,1.0755882E0,1.9110453E0,2.1055522E0,0E0,0E0,1.3772285E0,1.307477E0,9.390329E-1,2.4074306E0,2.3376083E-1,7.3063767E-1,1.33183E-1,9.572791E-1,2.9851627E-1,2.132395E0,1.3095303E0,7.83785E-1,0E0,7.683166E-1,0E0,2.849977E-1,8.5725254E-1,1.3383584E0,1.2355864E-2,0E0,1.2880725E0,1.3329864E0,0E0,6.5121174E-2,0E0,7.9161644E-1,7.536708E-1,2.5561423E0,2.5975645E-1,1.2645832E0,1.1027803E0,0E0,0E0,2.0226765E-1,1.1493883E0,2.3120112E0,3.2400453E-1,9.660626E-1,0E0,0E0,0E0,0E0,0E0,0E0,0E0,0E0,0E0,0E0,0E0,0E0,0E0,0E0,0E0,0E0,0E0,0E0,0E0,0E0,0E0,0E0,0E0,0E0,0E0,0E0,0E0,0E0,0E0,0E0],"parents":[2147483647,0,0,1,1,2,2,3,3,4,4,5,5,6,6,9,9,10,10,11,11,12,12,13,13,14,14,15,15,16,16,17,17,18,18,19,19,20,20,22,22,24,24,25,25,26,26,27,27,29,29,30,30,32,32,34,34,35,35,36,36,37,37,38,38,39,39,42,42,43,43,44,44,45,45,46,46],"right_children":[2,4,6,8,10,12,14,-1,-1,16,18,20,22,24,26,28,30,32,34,36,38,-1,40,-1,42,44,46,48,-1,50,52,-1,54,-1,56,58,60,62,64,66,-1,-1,68,70,72,74,76,-1,-1,-1,-1,-1,-1,-1,-1,-1,-1,-1,-1,-1,-1,-1,-1,-1,-1,-1,-1,-1,-1,-1,-1,-1,-1,-1,-1,-1,-1],"split_conditions":[-1.1974809E0,-2.1732059E0,-3.686393E-1,-2.2151725E0,-1.5332142E0,-6.833893E-1,-2.5323096E-1,2.0653429E-2,3.7278127E-2,-2.0263226E0,-1.386331E0,-7.5683093E-1,-6.6240597E-1,-3.3716428E-1,8.5888565E-1,-2.099764E0,-1.8059976E0,-1.5017393E0,-1.3548559E0,-8.092893E-1,-7.043726E-1,2.8338468E-2,-3.8962263E-1,-1.5978085E-2,-3.2667264E-1,-4.3397643E-2,9.008523E-1,-2.1312392E0,2.00272E-2,-1.8479642E0,-1.7325559E0,1.1637515E-2,-1.4178059E0,-1.4441806E-2,-1.2919059E0,-9.037143E-1,-7.987976E-1,-7.4633926E-1,-6.93881E-1,-4.001143E-1,1.7718878E-2,1.4390991E-3,-2.9519764E-1,-1.4831431E-1,-3.2905977E-2,8.693773E-1,1.540844E0,9.245659E-3,1.394888E-2,-9.3757873E-4,-3.2481086E-2,1.9185305E-2,1.4641889E-3,2.7956892E-2,1.9575393E-2,2.4679706E-2,7.4437084E-3,2.1638918E-4,-7.179039E-3,3.5702866E-2,9.768666E-4,-4.635369E-3,-1.6852196E-2,1.2895927E-2,-1.51637485E-2,3.850083E-3,-2.1364143E-2,-1.53650185E-2,-7.3285648E-3,9.778762E-4,-9.554523E-3,3.249445E-2,5.877298E-4,-3.1052629E-2,-1.2818067E-2,-3.484978E-3,2.7705566E-3],"split_indices":[1,1,1,1,1,1,1,0,0,1,1,1,1,1,1,1,1,1,1,1,1,0,1,0,1,1,1,1,0,1,1,0,1,0,1,1,1,1,1,1,0,0,1,1,1,1,1,0,0,0,0,0,0,0,0,0,0,0,0,0,0,0,0,0,0,0,0,0,0,0,0,0,0,0,0,0,0],"split_type":[0,0,0,0,0,0,0,0,0,0,0,0,0,0,0,0,0,0,0,0,0,0,0,0,0,0,0,0,0,0,0,0,0,0,0,0,0,0,0,0,0,0,0,0,0,0,0,0,0,0,0,0,0,0,0,0,0,0,0,0,0,0,0,0,0,0,0,0,0,0,0,0,0,0,0,0,0],"sum_hessian":[6.359E3,7.14E2,5.645E3,4.8E1,6.66E2,1.649E3,3.996E3,1.7E1,3.1E1,4.17E2,2.49E2,1.065E3,5.84E2,2.27E2,3.769E3,9.2E1,3.25E2,1.02E2,1.47E2,9.05E2,1.6E2,4.3E1,5.41E2,6.7E1,1.6E2,2.245E3,1.524E3,4.5E1,4.7E1,1.09E2,2.16E2,2.3E1,7.9E1,3.3E1,1.14E2,7.98E2,1.07E2,9.7E1,6.3E1,5.04E2,3.7E1,2.3E1,1.37E2,4.14E2,1.831E3,6.7E1,1.457E3,2.3E1,2.2E1,9.5E1,1.4E1,5.7E1,1.59E2,5.2E1,2.7E1,4.3E1,7.1E1,6.22E2,1.76E2,2.8E1,7.9E1,2.4E1,7.3E1,3.5E1,2.8E1,4.87E2,1.7E1,5.3E1,8.4E1,2.17E2,1.97E2,2.2E1,1.809E3,1.2E1,5.5E1,1.143E3,3.14E2],"tree_param":{"num_deleted":"0","num_feature":"2","num_nodes":"77","size_leaf_vector":"1"}},{"base_weights":[6.460973E-3,-7.0767716E-2,2.4166222E-1,6.656894E-2,-1.1955625E-1,1.4072637E-1,3.093379E-1,1.1004533E-1,4.7853876E-2,-1.4789087E-1,-8.713901E-3,3.2267582E-1,1.0896952E-1,2.8435576E-1,3.8403007E-1,1.957912E-2,9.701937E-2,5.413082E-2,1.272823E-3,-6.5010875E-2,-1.6292964E-1,-7.199618E-2,7.8096753E-3,2.5296718E-1,4.438655E-2,-2.1134111E-1,1.3555135E-1,2.977507E-1,9.70375E-3,4.6887044E-2,3.4790903E-1,1.0425309E-2,1.1275462E-1,5.016651E-2,1.549262E-2,-2.63285E-2,3.5172931E-3,-5.3532396E-2,-1.07348524E-1,-1.7645535E-1,-1.20249E-1,-9.6897185E-3,-3.6877744E-2,1.587314E-2,-1.63064E-2,4.3377206E-2,1.1907817E-2,-7.896165E-3,-3.399605E-2,1.5143326E-1,3.7213488E-4,4.814759E-2,2.8520185E-1,2.2862455E-2,3.671642E-1,5.586734E-3,-4.088678E-3,1.3702071E-2,8.490398E-3,5.331526E-3,-6.7586005E-3,-3.6990498E-3,-1.4023315E-3,-1.1068351E-2,-4.692847E-3,-1.7864015E-2,-1.4311642E-3,-1.4088498E-2,-2.1442303E-2,-1.03309015E-2,-1.6284855E-2,1.9854892E-3,-8.328209E-3,-6.5973826E-4,8.36609E-3,1.3327059E-2,2.2122232E-2,-1.9715544E-2,3.0067613E-2,3.868313E-2,2.8363032E-2],"categories":[],"categories_nodes":[],"categories_segments":[],"categories_sizes":[],"default_left":[0,0,0,0,0,0,0,0,0,0,0,0,0,0,0,0,0,0,0,0,0,0,0,0,0,0,0,0,0,0,0,0,0,0,0,0,0,0,0,0,0,0,0,0,0,0,0,0,0,0,0,0,0,0,0,0,0,0,0,0,0,0,0,0,0,0,0,0,0,0,0,0,0,0,0,0,0,0,0,0,0],"id":21,"left_children":[1,3,5,7,9,11,13,15,17,19,21,23,25,27,29,-1,31,33,35,37,39,41,43,45,-1,47,49,51,-1,-1,53,55,57,59,-1,61,-1,63,65,67,69,71,-1,73,-1,-1,-1,-1,-1,75,-1,-1,77,-1,79,-1,-1,-1,-1,-1,-1,-1,-1,-1,-1,-1,-1,-1,-1,-1,-1,-1,-1,-1,-1,-1,-1,-1,-1,-1,-1],"loss_changes":[1.1610504E2,3.225054E1,1.0749298E1,1.0215774E0,1.1151249E1,3.6397362E0,1.6541443E0,4.0431833E-1,2.5840092E-1,3.5142632E0,7.576126E-1,6.8182564E-1,4.6519895E0,1.7576027E0,5.5397415E-1,0E0,4.4983816E-1,3.0350375E-1,1.00108966E-1,2.0613694E-1,1.3602333E0,2.7701354E0,7.9484284E-1,1.44923E0,0E0,6.8827164E-1,1.0504808E0,1.3935585E0,0E0,0E0,